SVM-light Version V6.10
0 # kernel type
1 # kernel parameter -d 
1 # kernel parameter -g 
1 # kernel parameter -s 
0 # kernel parameter -r 
empty# kernel parameter -u 
9983 # highest feature index 
2984 # number of training documents 
1054 # number of support vectors plus 1 
-0.17038582 # threshold b, each following line is a SV (starting with alpha*y)
-0.61973455248830167 13:0.031756867 15:0.022528112 22:0.033610046 25:0.02116047 40:0.12228312 43:0.04801045 66:0.018927887 67:0.029301137 91:0.01984168 116:0.019093128 139:0.021461371 145:0.038815729 146:0.017700443 150:0.02101353 154:0.044676144 162:0.038865026 166:0.050735507 171:0.030500641 180:0.021522714 187:0.018471049 194:0.01865115 214:0.021615479 217:0.022656934 227:0.051520523 232:0.084641881 253:0.063201591 268:0.022631317 274:0.019581769 281:0.028888414 289:0.040676575 301:0.026508776 303:0.02749577 324:0.044599954 331:0.018099334 336:0.019529207 345:0.051905204 357:0.023581754 375:0.025152534 394:0.030549195 427:0.02346226 433:0.0205859 434:0.061925445 448:0.02047505 483:0.041266184 488:0.031812552 491:0.020236364 493:0.020338288 508:0.025243228 533:0.022493958 543:0.033613697 544:0.02408652 545:0.061425149 553:0.024456624 558:0.044056606 562:0.037850287 581:0.018426554 588:0.027380889 597:0.029999321 618:0.018998353 619:0.025806416 634:0.047671814 638:0.02101353 641:0.063481413 662:0.056713544 678:0.023297368 679:0.027438154 682:0.032770693 684:0.041841432 692:0.017476954 707:0.035166949 710:0.019581769 729:0.029481476 737:0.030222286 741:0.029400757 768:0.024300516 770:0.026251918 781:0.026101079 788:0.045682319 850:0.028662764 865:0.019164838 877:0.081464842 898:0.10793941 903:0.070883706 912:0.027909186 921:0.01776232 923:0.02116047 937:0.090208255 940:0.020123489 947:0.024583274 963:0.022258271 971:0.054310445 999:0.024841769 1015:0.023164902 1021:0.037025634 1024:0.035701036 1040:0.025854895 1044:0.053593848 1054:0.031904124 1095:0.037076376 1101:0.018696716 1113:0.025952602 1124:0.024290347 1135:0.023128379 1147:0.047923896 1183:0.0205859 1186:0.017741648 1200:0.047932595 1228:0.021461371 1261:0.022805862 1263:0.024456624 1265:0.041354574 1285:0.022225074 1291:0.029063283 1305:0.036413968 1316:0.050125398 1338:0.16892268 1350:0.028662764 1393:0.045824304 1434:0.027323967 1445:0.023019649 1455:0.028662764 1474:0.026001837 1481:0.026880492 1486:0.037679516 1549:0.035839394 1553:0.03543023 1570:0.026251918 1602:0.045322914 1673:0.032770693 1705:0.040141083 1721:0.027670745 1737:0.075023532 1741:0.024625869 1752:0.16253766 1766:0.039543841 1799:0.032571159 1800:0.080366038 1808:0.024798192 1881:0.083733998 1903:0.055005644 1907:0.034299117 1908:0.038381875 1913:0.019164838 1916:0.028995343 1919:0.093330577 1922:0.041841432 1942:0.11355086 1984:0.059395406 2028:0.027849009 2058:0.11060693 2082:0.029270072 2094:0.044951197 2161:0.063993178 2259:0.04298329 2278:0.027155222 2309:0.031904124 2312:0.031721856 2351:0.061719339 2370:0.026101079 2468:0.036370989 2521:0.030299652 2652:0.022358563 2725:0.046975352 2779:0.039965134 3072:0.056121938 3122:0.043284189 3150:0.19100673 3259:0.035979807 3299:0.041607324 3506:0.025473837 3620:0.041005284 3666:0.10801417 3682:0.037025634 3789:0.044593513 3839:0.029131712 3882:0.051520523 3946:0.043284189 4096:0.30419353 4225:0.065417774 4235:0.030145543 4349:0.043916259 4740:0.035701036 4842:0.041607324 5120:0.24776307 5186:0.039140482 5484:0.044593513 5628:0.56121939 5629:0.29731569 5630:0.051520523 5631:0.13083555 5632:0.05227913 5633:0.051520523 5634:0.055005644 #
-0.040747635423960836 13:0.020045804 36:0.024105094 83:0.028064141 112:0.054169971 115:0.047570892 141:0.021796808 151:0.067127436 168:0.025481308 170:0.031569969 176:0.020587249 187:0.018946579 188:0.023413246 193:0.019832052 194:0.038262632 206:0.026875913 211:0.024748074 232:0.065115713 251:0.030766079 292:0.036317218 298:0.028203636 317:0.026338127 320:0.026875913 357:0.084660999 358:0.022430357 363:0.064892747 368:0.065390423 380:0.036480263 403:0.026520519 410:0.028627696 421:0.025259852 427:0.048132572 434:0.042346459 448:0.042004343 450:0.049747031 473:0.01980703 479:0.031240394 487:0.032725479 532:0.040561881 548:0.019061629 555:0.037351429 569:0.027032295 574:0.030023618 599:0.032264657 604:0.029811503 607:0.020928646 625:0.031123705 630:0.02832292 640:0.026312893 655:0.066418476 656:0.049330674 662:0.019391203 684:0.057224829 692:0.035853781 710:0.020085894 732:0.049161613 735:0.027407277 741:0.082933582 779:0.02612965 788:0.023429194 804:0.061225962 816:0.023761272 820:0.050238959 829:0.0228313 864:0.029136125 894:0.074702859 896:0.089434579 897:0.031824697 901:0.074104562 903:0.042413335 906:0.047825165 911:0.034366678 914:0.031739045 917:0.020560207 934:0.031285867 940:0.02064156 956:0.023950782 983:0.037978843 1000:0.035165817 1034:0.027191233 1083:0.050607484 1091:0.024301495 1101:0.019178055 1120:0.063996598 1153:0.032725479 1169:0.035182133 1187:0.034145724 1200:0.024583299 1209:0.026722008 1242:0.095464937 1273:0.024624232 1279:0.021951366 1285:0.045594499 1295:0.029603919 1329:0.025846479 1338:0.028878586 1398:0.023356916 1414:0.037660073 1436:0.032086276 1457:0.055481236 1488:0.039558772 1495:0.022934174 1506:0.088607088 1539:0.042678487 1570:0.026927762 1571:0.076849937 1573:0.099331625 1575:0.03530442 1580:0.03594004 1695:0.029535696 1736:0.15421771 1748:0.29538295 1753:0.047298629 1758:0.044089876 1761:0.073812179 1763:0.031824697 1764:0.059345245 1784:0.048184715 1794:0.037978843 1831:0.040775549 1886:0.049157675 1887:0.10725006 1888:0.021288963 1976:0.029267499 1986:0.036480263 2076:0.028689813 2228:0.048659027 2233:0.031403784 2270:0.060363479 2289:0.02612965 2322:0.2446533 2364:0.032916106 2381:0.029952398 2595:0.020723598 2656:0.036620144 2665:0.07989537 2697:0.045741554 2818:0.050238959 3002:0.08289253 3003:0.071619093 3016:0.074401408 3033:0.035809547 3053:0.10291147 3141:0.046489734 3174:0.052846894 3202:0.064305216 3283:0.052646238 3348:0.039947685 3584:0.04321871 3641:0.033012837 3723:0.054470915 3848:0.1763595 3972:0.027244795 3973:0.045388006 4085:0.073240288 4235:0.030921627 4438:0.037818152 4692:0.058864899 4757:0.050238959 4971:0.056421742 5053:0.067101926 5067:0.067101926 5587:0.054470915 6781:0.060363479 7422:0.060363479 7464:0.058864899 7599:0.062135924 7692:0.38891056 7693:0.54447478 #
-0.23297867755724105 3:0.071520165 6:0.054115716 25:0.030565344 66:0.027340475 69:0.04048907 87:0.086867824 88:0.085867196 94:0.084964223 95:0.047837615 109:0.032030784 112:0.038141113 113:0.033727519 117:0.034054782 118:0.057829868 124:0.023027059 171:0.044056796 178:0.069903344 206:0.037846696 220:0.036863409 253:0.07607653 264:0.035946041 281:0.08345601 286:0.049021207 294:0.057829868 304:0.030102661 308:0.045060046 311:0.045626167 314:0.024533728 321:0.025401548 327:0.047575608 332:0.023376819 334:0.045951791 339:0.024051078 362:0.032151066 369:0.050797064 370:0.025686791 401:0.023452945 409:0.026488679 411:0.035387196 469:0.035266045 493:0.029377734 534:0.030780936 535:0.057603277 536:0.073862702 546:0.044339359 548:0.026842607 558:0.031818885 588:0.039550453 601:0.030780936 607:0.044207618 614:0.035882808 632:0.050066765 639:0.045955632 641:0.030565344 662:0.027306715 700:0.028105084 737:0.043654721 763:0.02614367 780:0.029029176 815:0.037487362 827:0.065479934 868:0.024929287 887:0.057727829 911:0.048395198 920:0.051177364 965:0.039144199 972:0.03898501 994:0.087499887 1001:0.039224491 1040:0.07469245 1044:0.030965554 1057:0.035570953 1067:0.10984845 1089:0.042584658 1095:0.026777573 1103:0.057119291 1135:0.033407897 1148:0.052598327 1151:0.066608384 1173:0.04422285 1184:0.052177068 1207:0.087309442 1293:0.023225827 1297:0.024732307 1298:0.09586218 1336:0.037993111 1363:0.036594972 1364:0.047779817 1368:0.072460033 1380:0.036999628 1408:0.076706007 1417:0.043879151 1471:0.041402064 1536:0.050610807 1563:0.065379828 1570:0.075839415 1647:0.029182997 1726:0.036594972 1754:0.079453163 1760:0.055180114 1869:0.05156853 1870:0.026268125 1966:0.047190916 1995:0.031912975 2033:0.045951791 2047:0.04793109 2109:0.040054433 2152:0.054673024 2182:0.066608384 2184:0.054426353 2217:0.048553463 2218:0.059379209 2233:0.04422285 2287:0.045308959 2327:0.042584658 2378:0.041029528 2386:0.057420179 2407:0.042179003 2546:0.049205486 2566:0.052813921 2581:0.067216918 2595:0.029182997 2603:0.057420179 2612:0.073404536 2629:0.059032612 2634:0.069964074 2635:0.062087417 2636:0.063435048 2637:0.067216918 2643:0.043992762 2651:0.050245721 2652:0.032295931 2657:0.070746563 2658:0.071576506 2795:0.033355344 2981:0.043002702 3003:0.050427046 3063:0.058364682 3163:0.075514838 3222:0.25971988 3299:0.060099896 3338:0.04469496 3554:0.21578383 3571:0.16578725 3659:0.063915446 3689:0.069223903 3698:0.066608384 3891:0.069223903 4003:0.038594961 4016:0.043766476 4048:0.055440884 4383:0.075514838 4438:0.053255569 4998:0.082893625 5106:0.026520479 5270:0.32426238 5372:0.075514838 5803:0.069223903 5821:0.081065595 6111:0.073404536 6825:0.07801079 7783:0.081065595 7800:0.085003927 8111:0.54766434 #
-0.95351006333308153 3:0.019616626 5:0.043457571 6:0.07421457 41:0.020559633 87:0.035739299 95:0.019681426 124:0.018947657 140:0.023917967 145:0.023067405 170:0.036581028 176:0.023855036 194:0.022168007 197:0.032408912 199:0.048737224 210:0.034956113 211:0.028676305 230:0.025508119 243:0.033836722 250:0.023126075 272:0.019466856 274:0.023274101 323:0.021743877 324:0.10601941 389:0.094000436 391:0.21963283 457:0.047336653 464:0.049268913 466:0.03667856 478:0.044196501 489:0.025080299 522:0.025765397 588:0.032543819 606:0.020820236 642:0.035040494 682:0.038949925 692:0.020772403 696:0.054328833 699:0.035211172 700:0.023126075 748:0.038252924 779:0.1211087 813:0.032275602 827:0.08081957 828:0.023126075 837:0.048476014 866:0.029168287 923:0.050300967 997:0.087960511 1001:0.032275602 1036:0.032818582 1183:0.024467571 1263:0.029068157 1322:0.044584975 1338:0.033462446 1374:0.027931266 1393:0.054464921 1398:0.027064329 1444:0.062045377 1457:0.03214385 1485:0.038252924 1500:0.041197095 1508:0.01938216 1634:0.086915143 1635:0.098905571 1669:0.028532805 1689:0.031821061 1801:0.040216945 1841:0.038480498 1949:0.042933542 2083:0.052592386 2267:0.042270727 2330:0.077661447 2343:0.039439768 2344:0.042933542 2368:0.1332646 2375:0.034223858 2383:0.040626612 2580:0.044987325 2652:0.026574487 2741:0.12427373 2832:0.094000436 2867:0.056960411 2893:0.050078761 2953:0.051815208 3371:0.060400419 3596:0.048859775 4138:0.092121914 4483:0.059623238 4673:0.11392082 4791:0.071998678 5183:0.046520799 5756:0.064190648 5861:0.065377489 6203:0.79605776 6204:0.22353691 6306:0.064190648 6307:0.064190648 #
0.31988377110917721 31:0.035150353 34:0.024202665 38:0.024721898 54:0.025069479 65:0.02389968 105:0.039777055 116:0.029704243 131:0.042074438 141:0.033059407 146:0.027537564 162:0.030232243 175:0.034170009 187:0.057472881 192:0.039998785 213:0.035645712 229:0.025536731 289:0.031641405 308:0.048532099 311:0.024570921 318:0.03483684 325:0.06358131 328:0.043608911 335:0.032377712 346:0.053177878 351:0.023602797 357:0.055031173 366:0.06937661 368:0.033059407 370:0.027666058 391:0.02613515 392:0.092632458 406:0.054114897 415:0.14326765 433:0.03202663 465:0.032625642 528:0.025990451 545:0.031854175 573:0.033676829 581:0.028667217 608:0.024854615 631:0.03703995 639:0.024748346 666:0.053924609 719:0.17918819 723:0.049778871 728:0.181767 729:0.13759792 754:0.053177878 769:0.042589881 906:0.036268421 978:0.10196639 989:0.041735463 1086:0.038715828 1123:0.059156351 1268:0.088184774 1282:0.049935587 1289:0.060893029 1315:0.026458576 1374:0.036560405 1392:0.030425493 1471:0.044592258 1478:0.066871494 1691:0.034784462 1843:0.045004722 1888:0.032289155 2181:0.039924502 2183:0.03697915 2348:0.052124236 2350:0.042509414 2490:0.048138883 2511:0.056197517 2779:0.062175985 2814:0.077091761 2967:0.06473083 3088:0.056197517 3227:0.047018491 3488:0.045215365 3601:0.058359142 3691:0.085575342 4041:0.08731202 4134:0.078043364 4157:0.055975787 4161:0.15812129 4190:0.061203454 4207:0.056197517 4530:0.089280903 4558:0.037725877 4881:0.050070856 4889:0.1626671 5160:0.065565869 5256:0.058620118 5397:0.051300295 5479:0.082616508 5498:0.076197863 5569:0.1626671 5769:0.08731202 6093:0.089280903 6238:0.10498531 6331:0.094242096 6466:0.080153346 7167:0.079060644 7472:0.062175985 8967:0.50887036 9088:0.22140472 9089:0.22140472 9171:0.094242096 9397:0.4070963 9398:0.09753228 #
0.80687572633324411 9:0.10584307 22:0.037032429 27:0.025792936 40:0.04042042 54:0.053264543 55:0.051417034 72:0.027284026 102:0.025257366 122:0.06476783 143:0.042892881 146:0.087762646 147:0.034443341 163:0.026981018 166:0.027950853 176:0.033171371 215:0.031399321 221:0.054257307 293:0.029330967 306:0.027158348 356:0.041348394 381:0.060908578 402:0.031360403 405:0.040770859 437:0.13690659 450:0.040077653 470:0.053349629 533:0.037176646 534:0.03521942 586:0.034161948 587:0.26631832 598:0.030344622 619:0.085302554 624:0.025496108 640:0.042396862 699:0.048962526 727:0.028298603 807:0.051699273 828:0.032157719 934:0.025204802 954:0.041720472 990:0.040559657 1036:0.045635533 1061:0.094846547 1072:0.035021767 1095:0.030638788 1130:0.093501776 1291:0.048034023 1293:0.026574895 1405:0.066034526 1564:0.028076416 1579:0.052279484 1728:0.066412054 1741:0.040700138 1791:0.052427955 1843:0.047810249 2004:0.061456978 2230:0.052729193 2294:0.099393807 2417:0.045928326 2445:0.032911744 2447:0.087766699 2507:0.046633571 2536:0.032035504 2552:0.063739389 2711:0.072582118 2751:0.052882016 2775:0.09090998 2915:0.052279484 2964:0.36189491 3272:0.026179036 3374:0.054161411 3451:0.050599601 3702:0.093267143 3703:0.068348326 3706:0.06876605 4492:0.48745546 4840:0.079205699 5251:0.11846635 5880:0.077638008 5937:0.29178342 6691:0.057084069 8048:0.31083691 8257:0.029632505 8320:0.076213032 8649:0.1755334 8650:0.1755334 8652:0.21623704 8656:0.1036123 #
0.24040644969778549 9:0.19540454 40:0.049748704 67:0.029801611 77:0.058586128 102:0.062172595 116:0.038838491 122:0.026571682 124:0.032427974 145:0.078957431 176:0.040826708 178:0.032813914 208:0.058172166 221:0.066778891 236:0.051535055 250:0.039579127 277:0.026065646 323:0.037213564 336:0.059588317 351:0.030860811 394:0.041427981 402:0.077195607 407:0.055581342 483:0.027980685 489:0.042923681 507:0.034931507 533:0.045756329 595:0.099327177 597:0.03051172 635:0.054243546 670:0.049243554 679:0.16744086 692:0.035550933 827:0.046106227 868:0.035106793 890:0.06311176 903:0.024031475 924:0.023872778 961:0.031413063 972:0.05490084 1013:0.048192456 1037:0.037482575 1042:0.036773387 1077:0.034020375 1078:0.052791767 1079:0.036173552 1155:0.36310822 1186:0.036089368 1200:0.1462539 1230:0.045895524 1296:0.08684168 1404:0.047046844 1430:0.056894958 1485:0.065467976 1538:0.064527355 1705:0.040826708 1748:0.065086201 1787:0.071014144 2249:0.076304965 2306:0.06179304 2351:0.12554707 2368:0.057018936 2375:0.058572434 2468:0.036992218 2834:0.05884397 3092:0.064711846 3409:0.072070785 3893:0.057780042 4071:0.065467976 4115:0.096496038 4197:0.1123653 4651:0.12322216 5142:0.058981188 6359:0.11970721 7025:0.054569393 7229:0.046534661 7437:0.032707889 7461:0.048413355 8305:0.05114511 8495:0.12172002 9452:0.70443583 9453:0.12322216 #
0.19871613870134808 2:0.043256938 5:0.16123766 27:0.068820603 28:0.060124289 72:0.072799131 111:0.047836013 141:0.093707792 142:0.047311392 229:0.072384559 272:0.072226547 293:0.078260764 489:0.093053721 624:0.068028614 625:0.066902772 656:0.10604004 678:0.051368739 727:0.075506218 758:0.042553183 934:0.067251347 1051:0.055018377 1293:0.070907027 1297:0.075506218 1453:0.10711634 1564:0.074913375 2028:0.12280945 3113:0.15177906 3272:0.13970159 3412:0.61085504 4310:0.44243208 6174:0.4031451 7461:0.10495471 8257:0.07906533 8827:0.21851869 #
-0.15263352342504583 3:0.04453839 5:0.049333926 15:0.03039667 68:0.025382061 91:0.026771927 109:0.029920222 114:0.056849744 146:0.023882804 176:0.027080726 179:0.027441988 304:0.028119149 354:0.077431627 357:0.031818327 358:0.029505171 379:0.042560294 421:0.033227127 428:0.02889864 429:0.056850433 430:0.048739035 442:0.049746472 465:0.028295597 475:0.035150465 479:0.041094005 533:0.060701173 566:0.033998784 598:0.024773002 620:0.028631518 641:0.028551344 659:0.022441506 661:0.055798788 684:0.037637129 726:0.11227963 749:0.068532914 753:0.042560294 795:0.06278789 804:0.040268701 815:0.10505177 822:0.036051877 824:0.029722286 950:0.039875198 1059:0.066084959 1079:0.023994246 1182:0.087621816 1196:0.041976273 1236:0.036791261 1257:0.070539042 1298:0.044772834 1500:0.046767786 1514:0.041201018 1519:0.05363667 1548:0.049957845 1555:0.031206597 1605:0.20570336 1780:0.05649019 1890:0.037821177 1902:0.059255209 1944:0.11764336 2028:0.037576035 2373:0.061675202 2383:0.092240326 2490:0.041749936 2895:0.062219448 3232:0.26744086 3601:0.10122755 3792:0.098265074 3931:0.066084959 3967:0.05107053 3971:0.26480016 3975:0.37005121 4082:0.10407221 4124:0.072870538 4178:0.064006694 4389:0.24769267 4576:0.046767786 5448:0.07572405 5579:0.069515467 6719:0.077431627 7188:0.07572405 7557:0.61389339 7558:0.079402879 #
0.20070023712513188 39:0.069528587 67:0.094950125 70:0.29716173 77:0.03110995 83:0.029553052 92:0.040991813 96:0.50364298 102:0.033014409 110:0.076131471 115:0.033396471 151:0.10603321 163:0.035267431 172:0.041454244 194:0.040292613 207:0.089766733 277:0.027682355 292:0.025495989 294:0.043245215 299:0.031682257 303:0.059399895 328:0.060555506 332:0.034962405 351:0.032774936 365:0.049116489 407:0.059028745 435:0.035000283 462:0.060423836 470:0.069734365 506:0.029745484 507:0.037098117 528:0.036090441 535:0.04307577 578:0.031172756 608:0.069026433 634:0.034328926 666:0.14975984 678:0.025164984 684:0.030130412 874:0.041980613 917:0.043302011 961:0.066722885 1052:0.032843072 1077:0.072260946 1079:0.038417198 1183:0.044472303 1186:0.038327791 1214:0.034736577 1285:0.04801346 1361:0.043473348 1391:0.067764141 1404:0.049964897 1445:0.049730003 1474:0.056172509 1508:0.070458107 1572:0.032171715 1669:0.051861282 1727:0.029167067 1867:0.045522515 1870:0.078573279 1911:0.047799811 1919:0.13441646 1922:0.060260825 1968:0.042087529 2100:0.11708823 2178:0.048855823 2350:0.059028745 2364:0.069324858 2376:0.13485785 2450:0.09633664 2451:0.073343612 2595:0.043646131 2718:0.075418763 2734:0.073098399 3036:0.051947854 3213:0.083720483 3401:0.060821414 3459:0.048085175 3665:0.062425163 4030:0.062934063 4102:0.094179422 4197:0.11933469 4346:0.092227988 4397:0.12397581 4421:0.059151713 4595:0.42397165 4804:0.02731438 5105:0.055234578 5106:0.079328127 5403:0.10837132 5404:0.084556296 5728:0.06579563 5869:0.073591791 5893:0.11130125 5959:0.10052972 5960:0.10148219 6717:0.11637605 7438:0.094179422 7461:0.034277443 8481:0.10704992 8767:0.12713198 9259:0.12397581 #
-0.68767522294181804 3:0.022251802 22:0.015104618 70:0.037090693 75:0.028097186 77:0.048537947 83:0.018443545 88:0.020036655 91:0.01337551 95:0.044650618 96:0.017461935 109:0.044845283 112:0.017800052 120:0.014371931 122:0.035222944 130:0.019832857 139:0.028934723 147:0.028097186 150:0.042496402 190:0.015401297 199:0.013821071 215:0.012807012 220:0.017203763 249:0.05965732 250:0.013116345 258:0.042800613 262:0.10034452 278:0.015473966 289:0.041130833 301:0.017869877 331:0.012200974 361:0.020373197 367:0.097749673 394:0.027458094 411:0.016514828 437:0.037227225 459:0.019148046 483:0.02781802 529:0.021384075 561:0.017905079 566:0.03397223 586:0.19507347 587:0.12414253 597:0.070780128 598:0.024753653 607:0.020631226 618:0.051228046 619:0.017396407 629:0.018457778 657:0.022929097 667:0.02982866 681:0.021569274 691:0.051265106 710:0.0132003 751:0.021263527 763:0.012200974 773:0.029418558 775:0.026605049 820:0.03301667 920:0.095535733 943:0.029387871 944:0.10572592 962:0.017940475 966:0.022886235 1028:0.019825952 1083:0.016629431 1088:0.02336563 1089:0.019873809 1101:0.012603676 1103:0.053313937 1107:0.016182862 1135:0.015591112 1202:0.031369425 1236:0.018381264 1307:0.018343346 1350:0.019321905 1424:0.015004561 1434:0.018419405 1452:0.020802865 1571:0.050505206 1637:0.050133586 1721:0.018653173 1784:0.031666636 1791:0.042768151 1831:0.053594779 2005:0.013049966 2109:0.01869298 2124:0.030552708 2218:0.027711648 2236:0.030552708 2240:0.043391585 2285:0.028588215 2384:0.095955342 2407:0.019684494 2439:0.023533769 2514:0.028588215 2571:0.022368932 2609:0.036406811 2629:0.027549895 2686:0.029604465 2698:0.054784272 2836:0.034730587 3018:0.11084659 3579:0.02679739 3580:0.038685575 3595:0.085054107 3805:0.028223034 3808:0.031666636 3820:0.024749922 4011:0.040835269 4168:0.038685575 4305:0.037079949 4362:0.13892235 4492:0.25562716 4776:0.031085426 4823:0.037079949 4825:0.034730587 4841:0.36751741 4911:0.73503482 4912:0.072813623 4913:0.037832454 4914:0.05717643 4915:0.081670538 4916:0.031978354 4917:0.03967043 4918:0.03967043 #
-0.23563777563377986 15:0.0242147 19:0.018096946 20:0.013869219 24:0.012371519 25:0.011372335 34:0.025082299 39:0.017296888 43:0.025802398 52:0.019570068 70:0.036963016 74:0.056875125 75:0.011200187 78:0.029128477 79:0.02738096 82:0.016904883 88:0.02396122 91:0.014218098 95:0.035597533 103:0.024400262 104:0.014684801 109:0.019862628 114:0.015095947 118:0.03227482 120:0.011457967 124:0.017135188 125:0.019616984 126:0.020153772 128:0.058710203 131:0.014534538 137:0.011324806 142:0.011531824 143:0.083686709 146:0.019025603 147:0.10080168 152:0.013542115 153:0.012370195 166:0.018177956 178:0.017339122 182:0.042070772 183:0.024104964 186:0.021364115 187:0.059561707 189:0.015546801 190:0.042975187 192:0.055270031 198:0.014712596 200:0.011735135 204:0.015730701 207:0.044663209 217:0.018264875 219:0.02230846 224:0.018628158 227:0.027688827 228:0.060791165 253:0.01698331 258:0.022748416 262:0.031999715 264:0.013374312 277:0.013773285 278:0.020560931 296:0.011372335 317:0.027599422 321:0.028353183 329:0.015960526 332:0.026093183 341:0.025057722 360:0.041607659 365:0.012218893 367:0.038965277 407:0.029369602 416:0.043426957 437:0.014839632 464:0.011139003 470:0.017348079 473:0.020755559 488:0.017097116 489:0.090724796 512:0.017612051 514:0.037124868 519:0.036615409 533:0.012088995 542:0.026322415 546:0.016497182 553:0.026287593 554:0.04500141 558:0.011838736 562:0.020341992 563:0.032568067 565:0.020726593 566:0.013542115 570:0.024704376 571:0.029369602 584:0.013166384 586:0.29993448 587:0.22268733 593:0.016311442 601:0.01145255 612:0.020627687 615:0.014715393 617:0.017246205 618:0.040841363 619:0.013869219 620:0.011404269 621:0.024032459 624:0.024872255 625:0.016307088 627:0.014624163 629:0.014715393 631:0.012795384 632:0.018628158 645:0.013542115 656:0.012923262 658:0.026631208 664:0.053919878 669:0.01210735 674:0.044450626 685:0.021035386 713:0.015656343 715:0.055377655 731:0.19336735 734:0.019814603 751:0.016952265 760:0.014191023 761:0.018628158 762:0.020930361 766:0.013032336 767:0.01739979 768:0.058769543 772:0.021964047 774:0.054195326 775:0.021210773 776:0.018184962 798:0.02580345 823:0.014654391 833:0.038826659 837:0.065758437 838:0.013421695 847:0.041061327 850:0.015404315 852:0.020435454 859:0.011701064 861:0.013715634 890:0.016674368 895:0.032078993 908:0.013615757 920:0.019041374 921:0.019092113 925:0.090031117 945:0.01806511 954:0.040699631 956:0.012548875 962:0.014302974 963:0.023924658 982:0.011735135 985:0.038373828 990:0.013189073 1013:0.025465259 1015:0.012449582 1021:0.019898796 1030:0.022644196 1038:0.016119711 1040:0.013895273 1093:0.022943901 1104:0.017000092 1130:0.11148368 1139:0.014302974 1184:0.01941333 1186:0.03813979 1212:0.024782736 1245:0.021715533 1300:0.018497547 1303:0.014191023 1335:0.030328341 1336:0.014135958 1369:0.020827457 1380:0.013766316 1394:0.013817508 1404:0.024859907 1409:0.015693387 1412:0.028096529 1416:0.018245963 1424:0.023924658 1425:0.013615757 1434:0.029369602 1435:0.014302974 1448:0.015583053 1452:0.016585004 1455:0.015404315 1495:0.024032459 1523:0.02016006 1550:0.020827457 1627:0.023966026 1643:0.019984404 1649:0.02902519 1653:0.012966611 1668:0.03390453 1671:0.075048827 1702:0.013895273 1760:0.020530663 1789:0.021364115 1791:0.017048372 1847:0.023780786 1852:0.021252165 1853:0.018694742 1872:0.017777262 1875:0.020341992 1896:0.036012448 1927:0.024565957 1942:0.020341992 1953:0.023780786 1966:0.017558152 1968:0.031410813 1988:0.071093909 2043:0.015197791 2061:0.016857937 2119:0.037799757 2121:0.03500963 2126:0.017048372 2146:0.0316271 2152:0.061025977 2160:0.015999857 2172:0.039300565 2187:0.019261273 2197:0.10982024 2200:0.033170007 2209:0.016629489 2231:0.023966026 2234:0.019814603 2243:0.019271625 2258:0.015300006 2366:0.024358029 2383:0.018370202 2391:0.029561847 2407:0.015693387 2408:0.029561847 2410:0.027311357 2419:0.021838276 2427:0.012352188 2530:0.01277438 2537:0.014246691 2558:0.022791844 2573:0.018762207 2627:0.019898796 2675:0.037222922 2685:0.028096529 2707:0.019491095 2734:0.018184962 2809:0.019731781 2919:0.023100639 2988:0.086862132 3022:0.017348079 3030:0.027688827 3044:0.023262352 3045:0.022225313 3103:0.022644196 3179:0.33177957 3215:0.023780786 3228:0.020726593 3253:0.019491095 3304:0.020827457 3336:0.053919878 3355:0.026031276 3375:0.026631208 3442:0.02902519 3448:0.030161779 3544:0.026031276 3595:0.03390453 3611:0.02902519 3641:0.017296888 3672:0.19883704 3792:0.019570068 3823:0.025009153 3847:0.026322415 3872:0.026959939 3884:0.048716057 3889:0.030161779 3911:0.099130943 3940:0.027688827 4021:0.023966026 4082:0.020726593 4107:0.021364115 4214:0.022500705 4240:0.04500141 4294:0.029561847 4304:0.022791844 4323:0.023966026 4329:0.028539725 4377:0.025009153 4413:0.028539725 4429:0.35811338 4476:0.026031276 4492:0.13586517 4508:0.025009153 4696:0.0316271 4697:0.023966026 4722:0.030841926 4763:0.01739979 4799:0.024565957 4897:0.020341992 5224:0.022644196 5268:0.024782736 5728:0.016368225 5752:0.035157669 5834:0.024158256 5931:0.23584646 6453:0.033692352 6667:0.027311357 6726:0.026959939 6742:0.02902519 6907:0.26953882 6908:0.3350063 6909:0.035157669 6910:0.033692352 6911:0.030841926 6912:0.0316271 6913:0.029561847 #
-0.79078252931555448 4:0.5863446 67:0.49773881 68:0.63910568 #
-1.1607302872617125 164:0.70829439 293:0.27045822 513:0.43366197 608:0.48693809 #
-0.54100936641654018 164:0.77952123 293:0.29765579 306:0.27560768 513:0.4772715 #
0.85823754789272 6:0.025966603 19:0.052512076 24:0.023932368 25:0.021999473 26:0.018839283 29:0.018295962 33:0.022970887 38:0.033041321 55:0.032343697 57:0.036835022 80:0.048379526 91:0.034380656 92:0.019727146 95:0.1205093 97:0.027778808 98:0.046399891 115:0.20893496 125:0.018974261 142:0.022308001 146:0.018402256 150:0.021846706 176:0.041732658 187:0.019203419 191:0.020177377 193:0.040201791 200:0.022701301 202:0.033265237 219:0.021577556 235:0.050336272 243:0.029597446 253:0.043805003 258:0.022003096 268:0.023528637 274:0.020358177 289:0.02114469 318:0.023280073 329:0.12350081 335:0.043273468 340:0.051834673 348:0.02708425 387:0.05202011 388:0.060303096 410:0.05803154 416:0.028002758 433:0.021402121 450:0.025210699 476:0.023492742 484:0.036835022 507:0.017853322 519:0.035415757 522:0.045074698 533:0.023385834 535:0.020730043 538:0.020203004 546:0.063826703 548:0.019320026 557:0.036974788 573:0.045009766 581:0.095785789 614:0.025826732 619:0.026829628 659:0.051875107 684:0.029000282 708:0.022901714 716:0.069840215 758:0.040128872 770:0.10917117 775:0.041031666 787:0.15887047 801:0.035296321 833:0.037554562 847:0.039716009 866:0.076541707 883:0.028348522 894:0.075715527 906:0.024236741 917:0.1041946 977:0.038659286 995:0.042738318 1015:0.02408338 1023:0.031183142 1029:0.029597446 1033:0.077998184 1034:0.027559837 1047:0.028706864 1065:0.028771466 1078:0.026981611 1083:0.051293515 1095:0.019273218 1120:0.064864136 1129:0.024314327 1157:0.046361625 1167:0.036560137 1183:0.19261909 1236:0.028348522 1295:0.030005228 1303:0.02745215 1311:0.037406389 1387:0.076987363 1398:0.023673542 1444:0.16281584 1455:0.029799229 1457:0.02811667 1564:0.088306837 1571:0.25963902 1645:0.031663887 1670:0.027505847 1692:0.022767654 1696:0.027135974 1704:0.039903697 1732:0.025296381 1736:0.2188316 1748:0.33265236 1753:0.047939807 1760:0.039716009 1761:0.33665749 1893:0.033073906 1919:0.032343697 1920:0.035296321 1942:0.19675516 1945:0.108107 1981:0.035061706 2018:0.036035668 2033:0.033073906 2112:0.02134433 2123:0.031027969 2136:0.030215627 2144:0.059598457 2213:0.054351971 2270:0.12236353 2290:0.047522176 2326:0.13315307 2364:0.033362314 2413:0.03565906 2427:0.023894973 2440:0.090646952 2446:0.023492742 2448:0.054351971 2451:0.035296321 2468:0.018906541 2483:0.059662871 2492:0.089375116 2595:0.021004526 2643:0.031663887 2647:0.077998184 2710:0.028407348 2893:0.043804582 2938:0.028767876 3001:0.064338595 3052:0.03346036 3139:0.066724628 3192:0.047522176 3263:0.049824055 3348:0.040489215 3431:0.019249896 3605:0.042008109 3637:0.052833077 3799:0.038827725 3871:0.17302814 3875:0.032611221 3948:0.056148443 4002:0.11437318 4324:0.043257035 4442:0.046361625 4485:0.052153267 4555:0.05520932 4746:0.056148443 5664:0.092625603 5723:0.065176934 6076:0.050919998 6298:0.048379526 6323:0.048837904 6756:0.061181765 7142:0.062978238 7466:0.06801156 7563:0.041328304 7636:0.062978238 7874:0.043257035 7991:0.06801156 8287:0.046733491 8543:0.049824055 8599:0.053563286 8854:0.15849923 9084:0.13035387 #
0.85823754789272 31:0.020799607 57:0.032616757 78:0.024947686 79:0.023450991 95:0.015244122 105:0.023537377 117:0.021704061 120:0.029440237 139:0.01975715 151:0.030122962 169:0.023624627 176:0.036953527 177:0.024696231 187:0.017004287 207:0.025501821 217:0.020857774 230:0.01975715 235:0.066857815 248:0.01639002 253:0.019394277 263:0.022670358 268:0.020834191 289:0.018723248 304:0.019185264 318:0.020614091 329:0.027339444 335:0.038317889 339:0.015328421 341:0.021461204 349:0.019211663 368:0.019562326 370:0.016370906 374:0.037844025 379:0.029038237 380:0.032740518 427:0.021599151 433:0.037902396 434:0.019002672 454:0.029716242 485:0.029120162 519:0.031360023 528:0.015379394 531:0.031383306 535:0.018356085 555:0.033522379 599:0.057914149 604:0.026755402 620:0.019534845 630:0.02541942 687:0.025259323 695:0.023801789 699:0.027272586 713:0.053636797 732:0.029414568 766:0.022323627 773:0.02678336 779:0.093803965 829:0.020490767 840:0.027406817 859:0.020043237 875:0.023712758 877:0.021427376 902:0.074387833 906:0.021461204 912:0.025692951 931:0.083447754 934:0.042117931 935:0.046180796 983:0.068170942 1015:0.021325406 1069:0.023113754 1070:0.057713021 1095:0.017066091 1167:0.022661347 1186:0.016332807 1216:0.02236148 1282:0.049247514 1297:0.015762586 1313:0.044590052 1430:0.0257487 1444:0.024028422 1469:0.060523458 1537:0.035167824 1544:0.052830413 1562:0.0456177 1570:0.072501853 1618:0.062508531 1620:0.029628554 1736:0.11072657 1748:0.20619044 1753:0.042449851 1761:0.66245383 1766:0.036403712 1784:0.043245096 1907:0.031575467 1946:0.032866057 1983:0.029716242 2062:0.035852481 2081:0.032022998 2112:0.037800051 2119:0.032374382 2139:0.034533001 2155:0.02980482 2159:0.028718021 2160:0.027406817 2181:0.023624627 2187:0.3959212 2278:0.024998859 2292:0.07000947 2322:0.10978644 2402:0.028639769 2468:0.016741406 2496:0.035004735 2536:0.053532228 2556:0.035676215 2595:0.018599136 2642:0.034381259 2664:0.17622393 2734:0.06229955 2804:0.055503443 3052:0.029628554 3109:0.11222306 3159:0.028258707 3341:0.03854239 3421:0.040133134 3531:0.088236637 3551:0.03854239 3573:0.055930808 3641:0.059257109 3648:0.03213856 3808:0.043245096 3833:0.093565501 3848:0.079140075 4006:0.033387106 4160:0.038070656 4434:0.035167824 4441:0.042839214 4675:0.039041094 5068:0.15849124 5135:0.034844641 5385:0.075688049 5388:0.032740518 5996:0.087341577 6177:0.050637711 6235:0.14915535 6551:0.034844641 6765:0.043245096 7237:0.052830413 7656:0.099436902 7772:0.038070656 7795:0.037623126 7906:0.055766109 7980:0.043670788 8422:0.094858676 9207:0.052830413 #
0.48631110183985848 4:0.014015853 6:0.020283451 13:0.013886921 26:0.014716043 43:0.029242242 45:0.017184582 65:0.012475683 68:0.015277043 80:0.037790995 90:0.038606387 99:0.019458264 110:0.057238478 133:0.01461203 134:0.012918689 140:0.032684881 154:0.048375789 166:0.013734233 203:0.012244377 217:0.04599968 250:0.015801365 258:0.017187413 272:0.013301129 280:0.032428317 282:0.020390004 295:0.017330267 306:0.053379275 319:0.022519581 331:0.029397219 339:0.013522103 341:0.018932192 358:0.017758677 361:0.024543751 370:0.014441741 448:0.016627947 472:0.016407393 491:0.016434107 493:0.016516879 501:0.024358278 522:0.017604735 531:0.013842531 535:0.016192984 538:0.015781295 595:0.059482295 605:0.02099696 631:0.038669866 632:0.056297518 657:0.013811433 675:0.036214739 684:0.022653166 712:0.028351318 732:0.012974162 766:0.019692987 858:0.012501818 878:0.012193906 879:0.034670219 887:0.064911991 947:0.019964267 961:0.012541188 963:0.018076114 968:0.013045853 1000:0.027841661 1016:0.035403799 1019:0.098679721 1042:0.014681215 1074:0.028148759 1075:0.026531886 1092:0.017863041 1095:0.015055005 1107:0.019495623 1108:0.034907062 1124:0.019726379 1167:0.014279221 1168:0.03263294 1222:0.044565476 1310:0.023224352 1315:0.013811433 1361:0.016342441 1374:0.019084608 1424:0.018076114 1445:0.22433323 1459:0.026214449 1499:0.022965178 1512:0.016067149 1576:0.026778862 1670:0.021485809 1673:0.026613334 1726:0.020574586 1741:0.01999886 1746:0.023277251 1760:0.031023609 1923:0.03087974 1946:0.028993087 1985:0.016627947 1995:0.017942254 1996:0.023330517 2037:0.11219778 2040:0.017478762 2100:0.022007825 2124:0.03680709 2125:0.028454632 2178:0.027548723 2221:0.020463306 2316:0.037790995 2378:0.023067802 2402:0.025264828 2407:0.023714066 2468:0.029537162 2508:0.031786289 2547:0.024000224 2652:0.018157562 2714:0.026948029 2718:0.028351318 2732:0.019430943 2795:0.01875319 2943:0.018812396 2981:0.024177169 2983:0.024177169 3316:0.019463215 3431:0.015036788 3573:0.02466993 3635:0.8173067 3730:0.030329736 3843:0.038524576 3928:0.08253964 3930:0.12380946 4147:0.080484122 4186:0.017136628 4199:0.013811433 4462:0.080484122 4928:0.033189576 5106:0.029820921 5289:0.033384442 5309:0.039775446 5310:0.027387965 5377:0.02888234 5656:0.018665226 5700:0.027297942 5811:0.029941581 5959:0.037790995 5960:0.19074523 5981:0.04660482 6216:0.047791284 6286:0.039775446 6687:0.031627588 6772:0.262142 6997:0.041840214 7437:0.026116254 7460:0.031363446 7461:0.01288553 7876:0.02888234 8354:0.039335512 8481:0.040242061 8495:0.072892301 8594:0.034907062 8977:0.040738799 9105:0.041840214 9231:0.043125991 #
0.61074474133425072 98:0.17621 124:0.18882363 1186:0.21014342 1240:0.189494 1405:0.15774925 2028:0.16493073 3082:0.378988 4305:0.32576099 8538:0.74255526 #
0.092747015393391155 14:0.031337611 19:0.013746454 27:0.012741958 34:0.012701689 38:0.025948374 45:0.01727687 47:0.0154305 70:0.022461709 78:0.022126013 79:0.020798599 87:0.024550749 102:0.012477381 120:0.017406961 125:0.014901076 142:0.017519165 145:0.015845919 169:0.020952595 175:0.017932607 179:0.01660558 188:0.018636405 228:0.023088507 256:0.023296256 278:0.01249448 286:0.013854465 292:0.019271778 293:0.014489779 297:0.023296256 309:0.020509034 313:0.023326781 314:0.027735071 323:0.014936735 331:0.014777546 340:0.04070738 400:0.020573201 444:0.019502984 472:0.016495507 476:0.018449578 483:0.022461709 493:0.01660558 513:0.02323341 522:0.017699279 524:0.01266163 533:0.01836562 534:0.017398732 574:0.023898108 591:0.015594233 598:0.014990535 608:0.026087673 620:0.017325385 621:0.018255074 624:0.012595322 634:0.012974187 645:0.020573201 680:0.045973379 716:0.018282562 727:0.013979781 732:0.026087673 759:0.023618722 763:0.088665277 775:0.01611172 781:0.021310722 855:0.031487871 859:0.017776275 864:0.023191685 868:0.042273369 924:0.019164054 934:0.012451414 984:0.039546754 1004:0.020036859 1008:0.014187851 1042:0.014760058 1072:0.017301088 1080:0.02472242 1116:0.067066945 1183:0.01680775 1196:0.025400508 1230:0.018421492 1247:0.030360337 1282:0.052412935 1293:0.013128254 1314:0.025243554 1315:0.027771208 1404:0.018883605 1434:0.022309173 1480:0.029106474 1540:0.028712723 1554:0.022171399 1564:0.013870019 1569:0.030492617 1570:0.17147101 1714:0.028299926 1729:0.032808192 1741:0.02010626 1868:0.05581608 1870:0.04454368 1913:0.015647495 2056:0.029376397 2280:0.022786984 2321:0.027266646 2376:0.012741958 2409:0.022080893 2468:0.014847892 2481:0.028299926 2536:0.031651694 2560:0.032286324 2707:0.029610902 2834:0.047237445 2943:0.018913426 3103:0.034401096 3104:0.035340201 3126:0.16103411 3139:0.02620046 3272:0.012932695 3273:0.040957581 3354:0.02997655 3540:0.049458761 3573:0.024802417 3799:0.030492617 3893:0.023191685 3988:0.01692239 4003:0.021815561 4085:0.087446369 4096:0.37254688 4186:0.017228657 4199:0.013885604 4207:0.029492762 4264:0.017398732 4558:0.019798744 4563:0.038731463 4682:0.02620046 4740:0.058297578 4983:0.042684291 5076:0.040957581 5484:0.72818446 5784:0.11996716 5898:0.039989054 5914:0.049458761 5947:0.035340201 6028:0.039989054 6101:0.033367816 6238:0.01836562 6347:0.035593931 6383:0.039989054 6577:0.098917522 6826:0.035856266 6971:0.037004754 7396:0.044095114 7503:0.038731463 7885:0.026593342 8135:0.024367226 8253:0.022080893 8257:0.014638742 8267:0.026277458 8291:0.036701262 8538:0.25592735 8646:0.036409222 8715:0.040458173 8716:0.044910405 8717:0.040957581 8798:0.046855103 8868:0.15355641 8869:0.15355641 8870:0.042684291 8871:0.046855103 8872:0.044095114 #
-0.68503235770856719 70:0.04540053 75:0.20635265 88:0.049051374 95:0.054654185 98:0.049101707 104:0.090184435 124:0.052616552 126:0.041257091 178:0.053242765 187:0.060964838 191:0.064056851 217:0.14956121 294:0.066070274 324:0.049068298 409:0.060526308 426:0.063814044 436:0.072920762 464:0.068408459 474:0.1574208 547:0.10987147 569:0.086982429 625:0.050073724 657:0.056132309 823:0.089997679 824:0.072705768 865:0.063254729 894:0.12018654 1041:0.13110928 1121:0.15504505 1184:0.11922397 1228:0.070834577 1446:0.13906582 1508:0.053823136 1571:0.082427263 1707:0.070037559 1748:0.21121341 1761:0.23750713 1788:0.097541511 1809:0.10185424 1977:0.088720717 2047:0.10952196 2165:0.12728916 2406:0.23566693 2496:0.12550119 3161:0.13997258 3337:0.1483642 4090:0.13051689 5167:0.52581692 5597:0.17825371 5953:0.2159154 6044:0.18523391 6253:0.15817577 #
-0.26752147199271925 3:0.062829785 6:0.023770072 26:0.034491308 73:0.050959591 75:0.039667353 85:0.027465511 113:0.044443958 130:0.027999848 140:0.038303245 160:0.080198243 175:0.041805744 178:0.061409425 193:0.036801092 214:0.041143112 229:0.031243248 277:0.024390208 305:0.068217054 317:0.024437003 361:0.057525389 427:0.17863317 464:0.078901321 483:0.026182152 510:0.071400262 553:0.046550974 558:0.041928884 569:0.050162129 588:0.05211705 597:0.028550498 615:0.05211705 623:0.098064661 665:0.061624296 692:0.033265803 743:0.12672414 749:0.032226194 779:0.048487149 877:0.04430313 902:0.051267967 1118:0.038404591 1165:0.080198243 1186:0.067539252 1236:0.103802 1239:0.054556981 1253:0.048310287 1437:0.050857961 1736:0.17170326 1748:0.30451307 1761:0.20545293 1894:0.078714699 1912:0.058274027 2046:0.057234421 2154:0.077789389 2278:0.051687513 2284:0.052226048 3258:0.087004483 3620:0.039024927 5167:0.10107825 7372:0.79098755 #
-0.35059617102018659 8:0.014388331 35:0.014361763 46:0.02778792 54:0.01992272 56:0.023134893 73:0.016550398 90:0.01469367 93:0.017069215 99:0.01481171 102:0.018894199 106:0.015139606 109:0.013708135 122:0.016150223 145:0.023995096 147:0.012882962 159:0.12352818 165:0.016451927 175:0.027154915 179:0.012572717 217:0.056024227 248:0.03301784 253:0.039069943 268:0.055960882 269:0.019076822 286:0.020979485 289:0.012572717 294:0.024749307 297:0.01763848 298:0.016997328 301:0.016387189 313:0.026492389 318:0.027684847 321:0.016306557 327:0.030541223 335:0.012865288 344:0.017442515 351:0.01875715 357:0.021866644 381:0.022781845 393:0.02051295 394:0.012589929 403:0.015982972 406:0.050172642 409:0.022672588 411:0.03028914 420:0.041156825 421:0.030446427 427:0.14503893 433:0.012725785 434:0.012760351 437:0.017069215 440:0.058203056 441:0.018051242 468:0.02142695 475:0.016104402 476:0.013968877 477:0.020847831 493:0.012572717 533:0.041715927 534:0.013173241 560:0.018094959 590:0.037617713 591:0.014758733 597:0.018544972 598:0.022699807 613:0.01958367 626:0.030499328 627:0.016821373 640:0.023786766 659:0.020563429 669:0.013926422 684:0.025865525 741:0.013631213 744:0.012623296 769:0.02538464 779:0.015747409 784:0.014669608 798:0.029680295 812:0.025119372 815:0.016043372 816:0.014320073 822:0.066069558 838:0.01543824 861:0.015776342 867:0.017841227 877:0.02158282 884:0.023292713 898:0.022241987 902:0.0333011 903:0.018257862 911:0.020711573 912:0.017252892 917:0.02478181 955:0.012900689 971:0.016786808 1019:0.037557703 1037:0.022781845 1078:0.11230361 1083:0.015249664 1085:0.02241954 1110:0.023189014 1118:0.012472847 1124:0.0150158 1127:0.024445202 1133:0.023615297 1134:0.017328007 1182:0.12043343 1183:0.012725785 1200:0.044446435 1201:0.026346482 1207:0.018682804 1209:0.032208804 1211:0.024075048 1228:0.013266984 1239:0.01771874 1261:0.056392483 1285:0.01373909 1287:0.015604853 1303:0.016323157 1317:0.025564559 1338:0.052212287 1375:0.052782226 1383:0.019444762 1398:0.028152764 1420:0.019954545 1430:0.01729033 1444:0.016135158 1449:0.023505783 1459:0.019954545 1471:0.03543748 1478:0.026571399 1485:0.019895662 1487:0.025720803 1503:0.036188331 1506:0.017800113 1527:0.062543489 1535:0.012795121 1570:0.14605562 1648:0.024075048 1651:0.017178729 1666:0.019127991 1669:0.014840147 1671:0.043162275 1680:0.025720803 1689:0.016550398 1699:0.017328007 1707:0.013117706 1726:0.015661459 1737:0.023189014 1741:0.045669641 1742:0.023726897 1745:0.052432422 1773:0.020448212 1777:0.053899035 1819:0.026571399 1869:0.022069655 1888:0.0128301 1890:0.069312029 1896:0.020711573 1942:0.093593121 1946:0.022069655 1956:0.024075048 1958:0.027148141 1988:0.016355086 2028:0.017215693 2030:0.043007076 2155:0.020014025 2181:0.015864007 2233:0.018925942 2273:0.025119372 2278:0.033573616 2289:0.015747409 2291:0.021203019 2299:0.021739494 2312:0.039219618 2323:0.33386087 2343:0.041025899 2377:0.017800113 2381:0.018051242 2397:0.019837365 2413:0.021203019 2446:0.013968877 2451:0.020987332 2498:0.024319202 2568:0.021985356 2598:0.026949517 2664:0.019722482 2710:0.20269346 2804:0.018635364 2825:0.022155188 3024:0.026571399 3117:0.029625582 3126:0.16256672 3135:0.07019484 3139:0.039674729 3195:0.028256875 3306:0.029039212 3349:0.031848941 3398:0.026949517 3436:0.059884705 3575:0.032317899 3596:0.025412373 3606:0.032827683 3644:0.028766658 3727:0.06677217 4035:0.028506225 4038:0.034003373 4066:0.028506225 4085:0.022069655 4096:0.070517354 4169:0.029625582 4370:0.12565903 4376:0.17103735 4381:0.03101054 4576:0.02142695 4664:0.21407744 4856:0.034693442 4946:0.070951559 5133:0.03101054 5459:0.03744711 5484:0.027566805 5512:0.03744711 5547:0.024705637 5689:0.034693442 5821:0.034693442 5831:0.026949517 6626:0.034003373 6736:0.038754467 6738:0.16175976 7606:0.32813558 7607:0.56251812 7608:0.038754467 7609:0.077508934 7610:0.031414758 7611:0.030277232 #
-0.56783600785482402 22:0.014238622 28:0.025991976 36:0.014933435 90:0.015104474 99:0.030451629 112:0.01677952 113:0.074189179 125:0.023195194 130:0.018695777 131:0.017185692 166:0.021493685 170:0.019558027 176:0.025508163 183:0.0142509 190:0.014518293 193:0.036858682 206:0.016649995 220:0.081087083 230:0.013637901 268:0.028762717 293:0.022554966 304:0.05297257 317:0.016316829 321:0.022349939 323:0.10462816 337:0.013371876 361:0.019205136 368:0.02700684 381:0.023418779 407:0.086816818 416:0.034232132 427:0.014909393 428:0.027220512 436:0.014039558 488:0.020215692 501:0.019060006 555:0.092558883 591:0.027308442 599:0.45973313 602:0.017327407 630:0.017546436 666:0.044052009 669:0.014315777 684:0.017725781 685:0.02487232 735:0.016979182 737:0.019205136 771:0.015514684 779:0.016187675 815:0.11544339 818:0.047609583 867:0.036680061 894:0.06941916 902:0.017116066 906:0.014814172 908:0.016099323 910:0.056675036 911:0.063871875 912:0.017735248 956:0.029675672 963:0.014144302 983:0.02352841 1020:0.014477939 1029:0.072363138 1095:0.023560656 1183:0.013081573 1206:0.022184502 1215:0.013484451 1222:0.017435925 1223:0.020512434 1254:0.072826594 1263:0.031082546 1268:0.018009942 1290:0.01896516 1295:0.018340031 1304:0.023234567 1316:0.015926411 1338:0.10734408 1355:0.023330931 1387:0.09411364 1407:0.023428861 1432:0.037395999 1474:0.016523199 1487:0.026439905 1535:0.013152847 1570:0.33364233 1571:0.015869861 1573:0.061537299 1574:0.02904688 1603:0.025821658 1692:0.013916224 1699:0.017812463 1734:0.01462813 1736:0.038215991 1748:0.02033264 1749:0.018825633 1761:0.045727655 1788:0.018779835 1819:0.081942841 1830:0.12917219 1834:0.089061379 1889:0.026949162 1894:0.10511716 1897:0.14925544 1945:0.022026004 1949:0.022954395 2028:0.035394017 2036:0.02904688 2040:0.027353767 2043:0.053909775 2124:0.028801024 2134:0.095775716 2242:0.029570915 2248:0.014081238 2316:0.029570915 2389:0.017291665 2411:0.028801024 2412:0.10213925 2427:0.014605273 2542:0.026279291 2633:0.24754941 2652:0.014208034 2766:0.021430694 2783:0.042581253 2945:0.060289863 2981:0.018918291 3015:0.029570915 3024:0.027314281 3109:0.025821658 3115:0.020573577 3117:0.030453851 3139:0.020391976 3187:0.026439905 3243:0.032293048 3275:0.030779479 3530:0.13981615 3534:0.034319494 3567:0.028801024 3634:0.030453851 3784:0.054628562 3868:0.031123722 4002:0.034954038 4031:0.0245072 4126:0.064586096 4235:0.01915637 4344:0.037395999 4411:0.027505491 4440:0.023330931 4681:0.0356634 4731:0.027505491 4740:0.11343339 4803:0.023943929 4853:0.015006144 4947:0.030453851 4971:0.034954038 5008:0.038494054 5064:0.088025041 5065:0.39611268 5066:0.17605008 5067:0.2078528 5068:0.036467608 5069:0.030453851 5070:0.15935184 5071:0.038494054 5072:0.12057973 5073:0.11548216 5074:0.0356634 5075:0.02904688 5076:0.031877533 5077:0.0356634 5078:0.037395999 5079:0.033221439 5080:0.028337518 5081:0.032739375 5082:0.031877533 5083:0.037395999 #
0.24644992721730455 13:0.020452624 35:0.019451261 92:0.031773284 146:0.029639365 149:0.045481894 174:0.039230309 188:0.019110726 204:0.049012691 211:0.04040052 222:0.028129911 278:0.025624963 335:0.034848936 340:0.020871717 352:0.28232992 359:0.031422764 366:0.074671775 392:0.04985131 401:0.027188059 404:0.07866016 416:0.045102291 421:0.041235983 434:0.069129378 435:0.027129171 506:0.023056109 539:0.034848936 595:0.081765026 597:0.025116909 600:0.029708365 615:0.045849256 640:0.042955041 719:0.24108088 766:0.040605299 773:0.024358638 874:0.065079428 877:0.038975071 921:0.029742979 956:0.039098963 963:0.03727144 968:0.026899463 992:0.065540679 1020:0.019075302 1052:0.05091418 1077:0.056010392 1079:0.029777667 1153:0.053423408 1163:0.06122506 1181:0.055741914 1183:0.034471057 1196:0.052093972 1214:0.02692477 1377:0.064494357 1494:0.051537067 1572:0.024936711 1647:0.03383068 1662:0.021518743 1727:0.045215543 1773:0.055389229 1845:0.05470654 1867:0.035285089 1899:0.076540999 1913:0.032091491 1922:0.023354471 1983:0.05405201 1985:0.034285441 2034:0.047457732 2325:0.038728438 2358:0.047886681 3297:0.092106871 3316:0.040131528 3972:0.044476345 4186:0.035334297 4197:0.046248931 4385:0.10746919 4804:0.021171728 5091:0.056471702 5106:0.030744128 5274:0.055741914 5647:0.085094936 6113:0.059552979 6635:0.061999366 6967:0.073537707 7461:0.039853334 8495:0.10019857 8976:0.098541647 9627:0.8118372 #
0.85823754789272 20:0.078499615 66:0.057576064 68:0.057222322 93:0.33596855 103:0.20715779 120:0.064851955 123:0.04777427 124:0.14547743 164:0.28275189 178:0.049069609 333:0.10737073 358:0.066517629 401:0.049389347 436:0.067205243 457:0.060574017 465:0.063790716 564:0.071599647 586:0.18862505 598:0.055849236 613:0.04818248 619:0.078499615 687:0.08346314 700:0.17755872 733:0.038978316 749:0.05150111 765:0.36470556 775:0.060026363 838:0.075966626 867:0.087790959 903:0.035936434 1010:0.083814725 1072:0.064457513 1129:0.071140207 1414:0.11168164 1554:0.082602501 1704:0.11675245 1759:0.10737073 1895:0.13904302 1922:0.04242532 2293:0.24446258 2576:0.099077046 2829:0.22336328 2944:0.15458195 3641:0.097900175 3808:0.14289264 4072:0.11360431 6088:0.13904302 6380:0.1615345 6991:0.14289264 8253:0.24679594 8304:0.11906003 8305:0.038240951 9347:0.18426521 #
0.70990893745287353 6:0.020268839 43:0.038961567 47:0.030674037 66:0.030720819 99:0.019444246 109:0.023994019 129:0.021123808 134:0.025818765 137:0.068401732 147:0.033824518 149:0.022042176 153:0.037357938 167:0.044348039 172:0.062288787 179:0.033009961 188:0.018523501 190:0.018540699 213:0.037187465 215:0.12334075 229:0.026641248 262:0.19327801 274:0.063564196 281:0.023443602 314:0.04135057 323:0.029692492 340:0.020230383 358:0.035491765 359:0.030457221 367:0.31379992 394:0.049582731 433:0.066823699 435:0.026295561 450:0.039357599 524:0.025169848 561:0.0431097 586:0.33548179 587:0.37361935 595:0.079252593 634:0.025791172 659:0.026994884 746:0.047393963 768:0.01972042 838:0.040533461 867:0.04684256 877:0.018888732 878:0.024370244 903:0.019174578 933:0.030419931 937:0.04880403 952:0.022614406 967:0.079661883 968:0.043454848 989:0.043540608 1044:0.052191146 1052:0.049349714 1077:0.027144665 1078:0.042122252 1130:0.091821887 1153:0.051781841 1228:0.034832779 1285:0.036072303 1351:0.11820304 1398:0.036957871 1410:0.035032552 1481:0.04362826 1509:0.047849774 1637:0.060352817 1702:0.041963667 1705:0.032575399 1974:0.048082843 1985:0.033231936 1997:0.027265551 1999:0.037812687 2112:0.03332163 2325:0.037538409 2358:0.046415243 2638:0.050220989 2938:0.13473262 3033:0.056661785 3451:0.049690507 3497:0.076243132 3944:0.05286447 4051:0.060615771 4064:0.06259422 4197:0.067241728 4199:0.05520593 4304:0.068831272 4804:0.020521175 5106:0.029799439 5292:0.048082843 6346:0.080426142 7437:0.052194878 7461:0.025752494 8495:0.097119719 8837:0.086189844 9799:0.61537689 #
0.10374489443644662 29:0.018053349 31:0.023178097 44:0.029942097 95:0.016987327 106:0.050248057 120:0.021871204 129:0.017802039 153:0.023612484 174:0.02403402 207:0.028418021 208:0.029337252 213:0.023504736 217:0.034864374 229:0.016838888 230:0.02201643 232:0.021707749 253:0.021612063 295:0.02189178 309:0.025768846 314:0.034848094 357:0.024191655 370:0.018242963 492:0.040566575 496:0.029814953 499:0.052265346 514:0.035432361 524:0.079544358 528:0.017138069 535:0.020455152 536:0.026228938 600:0.018200506 628:0.034659687 662:0.019393446 669:0.046221524 678:0.023899913 687:0.028147794 768:0.099716023 828:0.019960454 865:0.019660503 866:0.025175575 873:0.075296566 923:0.021707749 924:0.036118392 960:0.059203882 967:0.025175575 982:0.022400269 990:0.025175575 1020:0.046745103 1044:0.021991983 1050:0.035090517 1092:0.022564786 1172:0.037664432 1181:0.034149673 1226:0.061081719 1228:0.088065721 1273:0.02462708 1282:0.02195164 1508:0.083645128 1515:0.03568491 1620:0.033016656 1692:0.022465741 1730:0.041222282 1732:0.024960939 1806:0.065397985 2052:0.035186205 2427:0.023578113 2445:0.020428479 2530:0.024384001 2701:0.076625697 2888:0.07629329 2956:0.032635327 2998:0.032635327 3735:0.043795794 3853:0.033413555 4070:0.039189357 4156:0.037355751 4660:0.037508864 4943:0.046113782 5106:0.037670109 5815:0.058871709 5938:0.036210585 6238:0.023075726 6807:0.055403885 7152:0.048190288 7759:0.055403885 7778:0.048664659 8298:0.10048954 8313:0.049163364 8390:0.044094976 9373:0.1727203 9374:0.1727203 9513:0.060370464 9515:0.21141204 9543:0.064312659 9563:0.052853011 9601:0.85570222 #
0.66319030059121487 31:0.020893496 38:0.022042176 44:0.026990786 47:0.02621527 92:0.026320333 106:0.025478574 124:0.022113048 140:0.027913695 158:0.058444899 166:0.023458747 180:0.029854588 211:0.033466958 215:0.15811796 219:0.028789181 221:0.045537371 250:0.053979017 253:0.073056825 264:0.034519237 293:0.049234111 306:0.022793608 314:0.047119822 323:0.0507528 326:0.091479234 332:0.022448923 339:0.02309642 362:0.030874893 391:0.046604477 434:0.028632674 538:0.026955228 546:0.042579398 581:0.025559843 584:0.033982571 586:0.25804463 597:0.020806329 630:0.038301241 770:0.03641456 771:0.03386623 773:0.020178193 775:0.027372612 798:0.033299483 847:0.1059797 868:0.023939768 900:0.021398515 925:0.18589699 954:0.035015389 955:0.028947575 967:0.034041133 972:0.22462548 1013:0.065726094 1015:0.032132499 1044:0.029736439 1080:0.021000776 1095:0.025714692 1110:0.052033324 1130:0.078474686 1135:0.064163677 1215:0.058869075 1216:0.033693627 1261:0.031634469 1269:0.04878078 1270:0.055738673 1282:0.029681889 1288:0.02167052 1294:0.047576994 1340:0.32900935 1341:0.20156097 1393:0.031781908 1508:0.045240272 1536:0.048601914 1572:0.041314114 1647:0.028024636 1907:0.047576994 1977:0.037286472 2046:0.041709892 2158:0.070490889 2200:0.042806067 2230:0.044254851 2245:0.061378449 2312:0.044002026 2374:0.03078296 2446:0.031344462 2718:0.14527634 2795:0.032031372 2861:0.051141694 3016:0.10061344 3036:0.033355072 3042:0.049332459 3294:0.051579952 3376:0.313429 3843:0.39481124 4073:0.060040366 4228:0.045043875 4767:0.04990831 4899:0.050510544 5160:0.02922944 5311:0.051141694 5413:0.077847861 6453:0.3478412 6555:0.062868319 6621:0.067938425 6623:0.065160453 6667:0.070490889 7194:0.077847861 7208:0.1739206 7330:0.1739206 8397:0.069583878 8662:0.084026754 9002:0.079603329 #
0.85823754789272 6:0.023037624 8:0.021468671 9:0.059070084 29:0.048696645 33:0.028531745 39:0.029686097 40:0.022558279 41:0.015955258 59:0.053241398 60:0.05575281 61:0.037480336 68:0.017351424 70:0.038063068 90:0.021924263 91:0.018301552 104:0.025203057 108:0.01959292 118:0.036928166 119:0.026682479 139:0.01979552 142:0.029687556 143:0.047876276 146:0.065306075 147:0.019222524 152:0.0232419 154:0.054944456 162:0.03584829 166:0.077995621 175:0.0810351 180:0.039704204 181:0.04216177 187:0.017037312 188:0.021053867 190:0.021073414 192:0.02371455 193:0.03566711 199:0.018911209 212:0.028388629 214:0.019937668 215:0.070094734 217:0.020898283 221:0.030280523 225:0.021299576 232:0.039035954 239:0.024794005 250:0.01794694 253:0.019431943 262:0.054920092 264:0.022953907 265:0.023626691 277:0.023638651 289:0.037519224 291:0.033451948 293:0.032738708 298:0.025361525 329:0.027392542 345:0.023938138 362:0.020530565 365:0.020970896 367:0.044583242 370:0.049208105 375:0.023200173 379:0.029094635 382:0.037696198 402:0.017501965 409:0.033829518 437:0.050937574 471:0.043329086 473:0.017811053 474:0.021996509 475:0.024029201 478:0.034298599 485:0.029176718 499:0.023496537 522:0.019995181 535:0.018391736 536:0.02358309 558:0.020318447 569:0.072924659 582:0.03569686 586:0.47663701 587:0.042465691 590:0.018709658 614:0.045827057 619:0.023803299 620:0.019572785 635:0.02459644 638:0.019382441 657:0.015686806 669:0.020779461 679:0.050616764 695:0.023848016 712:0.032200977 713:0.080611452 727:0.015793201 732:0.029471695 749:0.093699545 753:0.029094635 758:0.017801208 759:0.053364959 763:0.16694449 797:0.025468787 828:0.01794694 839:0.11180904 921:0.016383594 925:0.092710525 933:0.017287692 947:0.022675099 954:0.093135312 955:0.019248975 998:0.046270486 1000:0.01581106 1020:0.021014841 1033:0.069200143 1038:0.027665747 1043:0.024355602 1057:0.022714388 1091:0.021852607 1095:0.017099237 1113:0.023938138 1114:0.028617686 1123:0.035072722 1130:0.017394172 1135:0.021333136 1162:0.033187021 1201:0.019655647 1232:0.036666553 1247:0.034298599 1253:0.046821661 1263:0.022558279 1288:0.028820051 1297:0.031586401 1325:0.055874418 1333:0.031004572 1339:0.046270486 1345:0.024167597 1353:0.036474414 1392:0.018038718 1394:0.02371455 1434:0.025203057 1458:0.031106817 1469:0.030320501 1485:0.029686097 1493:0.051765703 1497:0.038617246 1499:0.026083486 1503:0.026998105 1515:0.032085191 1523:0.034600072 1550:0.07149101 1558:0.03051055 1563:0.020874655 1611:0.055193283 1613:0.060268994 1670:0.024403242 1673:0.030227004 1691:0.020623071 1694:0.059725415 1702:0.023848016 1708:0.03292989 1714:0.031970914 1731:0.027062621 1741:0.022714388 1766:0.036474414 1775:0.024499308 1776:0.03415167 1868:0.031528194 1891:0.028852908 1896:0.030903509 1905:0.046270486 1956:0.035922114 1976:0.026318181 1988:0.048806485 2040:0.019852102 2042:0.029176718 2043:0.026083486 2126:0.058519159 2163:0.033451948 2168:0.023758812 2224:0.039377887 2230:0.029427698 2247:0.032804105 2251:0.055895537 2258:0.026258914 2310:0.032437261 2314:0.035745505 2375:0.079678051 2402:0.028695391 2407:0.026934061 2413:0.094910368 2445:0.018367752 2453:0.033057511 2489:0.028388629 2530:0.021924263 2539:0.04180491 2547:0.027259074 2587:0.045176324 2595:0.018635258 2619:0.027876405 2624:0.051765703 2627:0.03415167 2630:0.032680105 2647:0.034600072 2651:0.032085191 2652:0.020623071 2742:0.039377887 2749:0.034600072 2755:0.051765703 2785:0.036666553 2826:0.030227004 2834:0.026682479 2863:0.037269678 2898:0.034754798 2911:0.032437261 2943:0.021366822 2986:0.10353141 3042:0.065608211 3078:0.043329086 3103:0.038863514 3180:0.048981819 3182:0.039116919 3216:0.042533822 3280:0.036863007 3294:0.068597198 3306:0.043329086 3341:0.038617246 3355:0.044676654 3395:0.040211078 3400:0.04050744 3405:0.028695391 3449:0.033318482 3451:0.028239191 3457:0.032437261 3479:0.047521453 3490:0.04216177 3608:0.054280583 3702:0.052051567 3717:0.083609819 3740:0.052933019 3805:0.038617246 3809:0.11703832 3852:0.048221178 3891:0.044204004 3910:0.044204004 4003:0.024645414 4101:0.046270486 4136:0.048221178 4146:0.082264252 4248:0.041132126 4332:0.045706298 4357:0.044676654 4395:0.073726013 4473:0.044676654 4558:0.044733968 4575:0.044204004 4578:0.060339991 4598:0.044676654 4634:0.030320501 4682:0.059198227 4763:0.029862707 4798:0.040211078 4811:0.36456698 4829:0.048221178 4844:0.046270486 4851:0.037269678 4881:0.029686097 4883:0.041462049 4899:0.033587482 5160:0.019436404 5186:0.036102366 5272:0.045706298 5366:0.072204731 5548:0.04687361 5557:0.048221178 5728:0.028092265 5808:0.04687361 5839:0.042922415 5841:0.042922415 5925:0.048981819 6051:0.051765703 6118:0.047521453 6141:0.052933019 6190:0.050736059 6298:0.042922415 6337:0.052933019 6409:0.040814206 6424:0.054280583 6449:0.051765703 6636:0.044676654 6742:0.04981501 6790:0.047521453 7005:0.038863514 7012:0.055874418 7220:0.054280583 7222:0.054280583 7471:0.046270486 7779:0.057825111 7834:0.054280583 8253:0.024945166 8257:0.016537638 8339:0.054280583 8356:0.076755457 8431:0.039377887 8489:0.048981819 8519:0.10856117 8563:0.10856117 8564:0.054280583 8656:0.057825111 8770:0.051765703 8854:0.14062084 8861:0.046270486 9054:0.055874418 9055:0.11565022 9056:0.057825111 9057:0.10353141 9058:0.055874418 #
-0.70911824052919203 5:0.015847748 13:0.015882127 16:0.0088507719 20:0.022370763 25:0.018343341 33:0.01340732 39:0.01394976 47:0.0081914989 52:0.031566113 54:0.048890565 70:0.023848232 71:0.012674318 85:0.012508594 88:0.012882983 90:0.010302405 91:0.0086000618 96:0.011227515 103:0.0098392796 106:0.015922608 107:0.0082141478 115:0.020101348 118:0.017352873 120:0.0092407316 125:0.015820894 129:0.018803705 137:0.13700008 139:0.0093020909 142:0.027900891 143:0.067492463 145:0.016824061 146:0.03835988 147:0.027098505 150:0.018215962 151:0.042547613 153:0.0099764345 162:0.025268145 166:0.036650836 167:0.01184314 172:0.0083171073 174:0.010154536 177:0.011627517 179:0.017630616 187:0.0080059832 188:0.0098933997 190:0.0099025844 193:0.0083801458 194:0.024252137 198:0.011865557 200:0.01892853 201:0.011381165 204:0.025373297 205:0.020169623 206:0.011356569 215:0.057641741 217:0.039281156 219:0.0089957714 220:0.011061517 228:0.012256862 240:0.011604242 256:0.012367147 258:0.0091731809 263:0.021347385 274:0.0084874071 278:0.0099493079 280:0.017307483 282:0.010882452 292:0.040922783 293:0.011538157 295:0.0092494246 297:0.012367147 311:0.010268202 313:0.024766704 314:0.022085333 317:0.016693987 320:0.011356569 324:0.0096655721 339:0.036084753 357:0.010221138 362:0.019294988 367:0.073325217 368:0.018420728 369:0.030485112 372:0.013429083 393:0.014382569 399:0.014032751 401:0.01407494 405:0.05346119 407:0.02368628 408:0.016880119 411:0.010618553 433:0.017845264 436:0.0095760515 448:0.0088745859 457:0.0086311698 459:0.036934901 464:0.0089834901 472:0.0087568732 473:0.0083695715 474:0.020672711 488:0.013788646 491:0.017542262 530:0.01461737 533:0.0194993 535:0.017284879 536:0.011081903 560:0.012687205 561:0.011512442 570:0.0099619124 571:0.01184314 586:0.40315673 587:0.15964003 597:0.01300273 601:0.018472726 609:0.014970412 614:0.010767271 621:0.019381929 627:0.047176942 634:0.013775061 639:0.013789798 640:0.011118662 657:0.014742739 662:0.0081938617 669:0.03905781 678:0.010097875 679:0.011892634 708:0.019095637 712:0.015131526 716:0.029116672 730:0.009869596 734:0.015980273 735:0.011581099 737:0.013099371 746:0.025313109 749:0.014676749 766:0.021020887 769:0.011865557 775:0.025659405 779:0.011041231 780:0.034842867 793:0.012626679 796:0.018034035 808:0.013923633 817:0.048971102 824:0.0095478185 829:0.019294988 837:0.0088389162 838:0.054122288 861:0.011061517 862:0.011512442 865:0.024920084 866:0.01063685 877:0.010088469 885:0.012778278 889:0.011674464 925:0.029043667 947:0.01065523 954:0.054706387 955:0.0090452647 956:0.010120538 967:0.01063685 997:0.05346119 1001:0.011770001 1007:0.024903698 1016:0.018895542 1030:0.01826231 1044:0.0092917616 1047:0.071808055 1049:0.017229939 1057:0.010673692 1077:0.050742865 1092:0.0095337741 1093:0.01850402 1095:0.016070167 1113:0.011248744 1115:0.015023417 1117:0.043765109 1118:0.017490571 1121:0.020360721 1124:0.021056531 1126:0.013235181 1130:0.024521027 1162:0.015594876 1165:0.01826231 1169:0.014866409 1175:0.018895542 1211:0.016880119 1285:0.0096331062 1290:0.025871376 1310:0.012395187 1333:0.014569324 1336:0.03420151 1350:0.01242342 1361:0.0087222075 1391:0.013595752 1401:0.016557768 1419:0.011248744 1437:0.011581099 1453:0.010528265 1457:0.011721955 1460:0.014665985 1481:0.011650923 1507:0.014117452 1508:0.021204378 1527:0.01461737 1549:0.015534017 1569:0.016187437 1577:0.024873694 1642:0.018895542 1643:0.016117215 1647:0.043784365 1653:0.010457438 1673:0.028407875 1681:0.012967907 1705:0.0086992579 1731:0.012716966 1732:0.010546165 1753:0.019986302 1772:0.018146586 1775:0.011512442 1791:0.027498672 1806:0.027631091 1869:0.015474048 1888:0.0089957714 1891:0.013558237 1892:0.025506929 1893:0.013788646 1898:0.027817771 1920:0.014715181 1942:0.016405607 1988:0.0114673 2018:0.030046834 2028:0.012070712 2082:0.012686648 2136:0.012597019 2184:0.048994765 2211:0.016405607 2233:0.013269846 2240:0.01394976 2245:0.019178957 2247:0.01541494 2263:0.020561146 2264:0.012626679 2334:0.022330754 2362:0.019178957 2384:0.012339297 2410:0.066078976 2427:0.019923825 2439:0.015131526 2450:0.057985052 2468:0.031528857 2476:0.020360721 2509:0.021742912 2512:0.021477794 2526:0.018895542 2547:0.012809281 2573:0.075657628 2586:0.041122291 2594:0.023408515 2619:0.026198741 2628:0.019178957 2642:0.016187437 2650:0.017713778 2734:0.014665985 2806:0.021742912 2821:0.012311634 2825:0.046602052 2834:0.012538333 2838:0.033272032 2865:0.035427555 2874:0.027736828 2887:0.022026327 2898:0.016331589 2947:0.015299218 2999:0.0087568732 3013:0.043285403 3042:0.03082988 3063:0.017513353 3249:0.020993955 3293:0.020360721 3437:0.017713778 3451:0.026539693 3492:0.014337178 3498:0.017612344 3579:0.017229939 3595:0.013671827 3607:0.018630426 3620:0.008886545 3809:0.013749336 3994:0.013868414 4064:0.016715782 4071:0.01394976 4110:0.045897651 4113:0.020993955 4119:0.026255885 4136:0.022659559 4261:0.016880119 4281:0.014764974 4323:0.019328352 4338:0.015913477 4385:0.013908885 4712:0.022026327 4811:0.019034807 4823:0.023841323 4827:0.025506929 5240:0.022659559 5366:0.016964821 5428:0.021477794 5434:0.019483384 5828:0.041122291 5841:0.020169623 6262:0.024873694 6365:0.017612344 6387:0.047682647 6666:0.019812191 6735:0.025506929 7094:0.025506929 7413:0.027172532 7641:0.026255885 7691:0.023841323 7834:0.025506929 8001:0.78881449 8002:0.022026327 8003:0.020169623 #
-0.16414820203504243 5:0.012531048 6:0.017119896 13:0.020930385 21:0.011520178 22:0.011518927 26:0.012420821 27:0.010697181 28:0.0093454635 33:0.019688249 34:0.015995063 35:0.01990563 41:0.023713589 44:0.020006249 47:0.035624262 50:0.031495903 52:0.02495979 54:0.044181127 59:0.0098912893 65:0.021059768 67:0.015063249 72:0.00848669 80:0.015948417 85:0.029672189 87:0.010305474 89:0.024454694 90:0.016292525 91:0.011333658 93:0.018926561 94:0.010079641 96:0.0088777607 97:0.0091573447 99:0.020529263 102:0.015712595 106:0.014688612 107:0.019485142 108:0.021840062 110:0.016103717 113:0.048014745 114:0.0096267341 116:0.013087298 117:0.016160214 119:0.0099142445 120:0.010960173 121:0.011879236 122:0.017907571 123:0.010765325 124:0.010927164 129:0.0089210188 130:0.010083152 137:0.01444373 138:0.01038438 142:0.011030822 143:0.062261827 150:0.057614516 154:0.020415373 156:0.033188775 157:0.010492662 163:0.011189919 165:0.009121052 166:0.011592141 169:0.043975528 174:0.024088021 179:0.013940787 182:0.026828667 183:0.02305772 186:0.013623965 201:0.0089992546 204:0.010031519 207:0.047469787 211:0.0330754 212:0.021096375 215:0.071622841 219:0.049791619 220:0.026239511 221:0.011251148 222:0.017272204 225:0.015828306 238:0.014940983 239:0.0092125563 240:0.018351289 246:0.011231262 252:0.0087304637 253:0.046931349 256:0.0097788842 258:0.061653636 262:0.051015802 263:0.016879691 264:0.0085288417 268:0.015512533 272:0.039293054 274:0.020133352 277:0.0087832678 278:0.015734127 280:0.01368528 281:0.0099007161 289:0.027881574 292:0.016179124 293:0.0091233896 294:0.061745271 295:0.021940967 296:0.014504349 298:0.028270276 299:0.015078583 300:0.022602236 303:0.037693702 308:0.010691302 313:0.0097916983 314:0.046568528 317:0.0088001201 321:0.027121373 327:0.016932245 332:0.016639706 333:0.024194632 334:0.010902885 339:0.028532743 351:0.031197244 358:0.029977806 363:0.010841013 367:0.10767589 370:0.024378603 373:0.012429534 375:0.008620345 380:0.036566459 387:0.0085742716 393:0.011372508 394:0.013959872 401:0.011129262 402:0.026012389 403:0.017722121 405:0.059181567 407:0.037458178 426:0.013252608 436:0.022715773 438:0.018886583 459:0.01946998 461:0.00845451 462:0.0095858676 469:0.016735001 473:0.013235887 479:0.020876139 485:0.010841013 491:0.024274116 493:0.020911179 500:0.0084692407 508:0.025954286 511:0.028329875 514:0.023674648 532:0.013552574 534:0.014606656 536:0.0087626232 549:0.016212815 550:0.050332077 559:0.011266002 561:0.009103057 564:0.016134072 566:0.0086358497 570:0.02363109 571:0.0093645444 572:0.0099373627 578:0.014836094 581:0.037891194 584:0.025188735 586:0.3116979 587:0.25245944 590:0.076470159 591:0.013091736 593:0.013002324 597:0.010281449 598:0.031462289 600:0.024321867 601:0.014606656 606:0.012007084 607:0.013985397 613:0.027143275 620:0.014545078 624:0.010574077 626:0.00845451 628:0.01736878 639:0.043615185 640:0.0087916888 647:0.01043807 648:0.012188819 663:0.018851684 664:0.13753951 666:0.023758473 668:0.0094036795 669:0.023162689 670:0.033186924 674:0.014173153 676:0.026308684 677:0.014834476 687:0.0094036795 691:0.039095264 692:0.035938498 693:0.027393922 699:0.010153187 706:0.016108034 710:0.013422235 730:0.015608069 733:0.02195817 737:0.010357864 740:0.014088781 746:0.020015446 748:0.01103028 749:0.017407682 751:0.010810514 752:0.0093451524 753:0.010810514 754:0.011714737 759:0.0099142445 761:0.023758473 769:0.014073405 829:0.01525683 831:0.016424609 833:0.012379943 837:0.013978122 847:0.013092469 855:0.026434829 856:0.015948417 861:0.026239511 864:0.0097349901 865:0.013136451 867:0.0098912893 868:0.047319353 869:0.010305474 871:0.017657254 873:0.014374428 877:0.023931302 884:0.012913627 889:0.0092311697 891:0.011129217 897:0.021266595 900:0.010574077 902:0.0092311697 908:0.0086828116 924:0.02413303 925:0.080378383 933:0.019270444 945:0.11520178 946:0.070775673 948:0.13280183 949:0.13395452 954:0.11246857 962:0.018242104 965:0.0092876609 970:0.018950418 972:0.018499782 980:0.014348772 985:0.024471113 989:0.0091940481 998:0.017192438 1000:0.023499271 1001:0.018613424 1007:0.068921015 1011:0.023758473 1013:0.04871783 1015:0.023817416 1016:0.014940983 1017:0.020559182 1019:0.031233342 1020:0.019520888 1040:0.026583182 1046:0.016239278 1057:0.0084398454 1072:0.014524682 1075:0.011196889 1076:0.012188819 1077:0.011463751 1079:0.012189302 1087:0.0094432915 1093:0.0146314 1095:0.012706917 1112:0.011129217 1113:0.0088945469 1117:0.017302858 1124:0.024974562 1130:0.10340872 1134:0.0096067563 1139:0.036484208 1153:0.010934268 1160:0.012052513 1172:0.012583019 1185:0.013482719 1209:0.0089283818 1216:0.024974562 1225:0.010604679 1228:0.036776498 1230:0.06186115 1232:0.013623965 1239:0.009823381 1249:0.011095902 1253:0.026095854 1261:0.015632175 1264:0.01099796 1272:0.012531048 1281:0.024471113 1286:0.022532003 1287:0.017302858 1288:0.016062733 1301:0.016257999 1305:0.012479895 1307:0.018651752 1308:0.01066217 1310:0.0098010562 1316:0.017179115 1319:0.014440276 1335:0.0096702399 1336:0.027043637 1350:0.009823381 1355:0.012583019 1356:0.018509457 1359:0.026308684 1361:0.013793555 1363:0.017365623 1394:0.017622938 1397:0.011921696 1414:0.025166038 1424:0.022885246 1425:0.0086828116 1444:0.0089454334 1455:0.039293524 1474:0.017822841 1475:0.009823381 1478:0.044194054 1485:0.01103028 1487:0.014259776 1495:0.015325576 1499:0.0096916799 1508:0.022355484 1524:0.011372508 1528:0.014940983 1529:0.011336617 1536:0.024016639 1537:0.013092469 1653:0.0165377 1656:0.072201379 1662:0.013212843 1670:0.0090673622 1673:0.011231262 1676:0.013696961 1689:0.018351289 1691:0.022988364 1696:0.026836298 1702:0.0088610603 1756:0.014348772 1764:0.029742733 1771:0.029204968 1789:0.013623965 1791:0.010871802 1800:0.013771635 1801:0.034789827 1808:0.0084989043 1847:0.015165083 1848:0.013281737 1861:0.011372508 1868:0.023429474 1870:0.02493033 1896:0.022965252 1919:0.01066217 1921:0.0093645444 1968:0.013353852 1971:0.013217415 1990:0.017917246 1999:0.011976806 2004:0.012744118 2029:0.015533193 2031:0.010691302 2035:0.049519774 2043:0.01938336 2047:0.011372508 2052:0.011755087 2054:0.011062926 2060:0.016424609 2074:0.017416539 2082:0.010031519 2109:0.019007262 2123:0.010228438 2131:0.016785888 2144:0.009823381 2147:0.011755087 2156:0.022325754 2175:0.015533193 2177:0.022965252 2200:0.010576311 2205:0.011336617 2211:0.012972154 2218:0.014088781 2223:0.027696131 2245:0.015165083 2278:0.0093067121 2286:0.013414334 2287:0.010750361 2289:0.017460927 2312:0.010871802 2314:0.053126946 2348:0.022965252 2351:0.010576311 2363:0.016257999 2370:0.0089454334 2374:0.022817103 2375:0.01973699 2377:0.01973699 2381:0.030023169 2384:0.0097568631 2389:0.018651752 2390:0.012531048 2405:0.033571776 2406:0.036706671 2407:0.020015446 2409:0.018537443 2410:0.087082699 2422:0.026965437 2470:0.013848065 2497:0.0150511 2504:0.010902885 2507:0.0096702399 2516:0.0150511 2543:0.028519552 2564:0.0085439142 2584:0.020760912 2618:0.011231262 2619:0.031073593 2641:0.044787556 2656:0.012235557 2718:0.023929438 2734:0.011596609 2795:0.015828306 2809:0.012583019 2821:0.0097349901 2831:0.014348772 2845:0.01580403 2858:0.024859069 2865:0.014006544 2894:0.017416539 2899:0.016785888 2909:0.016785888 2915:0.010841013 2927:0.014173153 2928:0.016785888 2968:0.030566422 2983:0.01020316 3033:0.011964719 3045:0.028346306 3249:0.016600229 3283:0.017590212 3309:0.015948417 3310:0.011879236 3311:0.013217415 3328:0.016424609 3334:0.0292628 3337:0.015405797 3354:0.025166038 3355:0.016600229 3385:0.013623965 3388:0.046232674 3405:0.095959529 3421:0.029881965 3440:0.065031998 3451:0.041970648 3467:0.011879236 3493:0.016600229 3501:0.02148572 3504:0.01566579 3508:0.017917246 3510:0.015948417 3559:0.019234264 3595:0.010810514 3607:0.014731351 3609:0.014173153 3651:0.020760912 3709:0.013696961 3733:0.01566579 3734:0.013031755 3749:0.014088781 3769:0.080084153 3803:0.017192438 3824:0.015533193 3837:0.017657254 3839:0.0099841002 3880:0.014440276 3911:0.01580403 3912:0.017192438 3925:0.018199874 3947:0.03984521 3994:0.010965958 3999:0.017917246 4031:0.013217415 4082:0.013217415 4159:0.026563473 4169:0.016424609 4214:0.028697545 4232:0.015405797 4268:0.014006544 4281:0.011674882 4323:0.030566422 4346:0.0146314 4349:0.045153301 4381:0.017192438 4389:0.062915094 4438:0.012635836 4441:0.015948417 4554:0.015283211 4621:0.020168703 4623:0.016600229 4736:0.014731351 4778:0.013031755 4814:0.020168703 4831:0.014173153 4840:0.032849219 4885:0.017416539 4970:0.018509457 4972:0.014088781 5084:0.013926338 5103:0.016600229 5133:0.017192438 5150:0.016982807 5178:0.014534432 5237:0.015165083 5263:0.016982807 5272:0.016982807 5284:0.020760912 5345:0.016982807 5366:0.013414334 5377:0.012188819 5420:0.015165083 5437:0.034384876 5458:0.020760912 5596:0.019234264 5786:0.014173153 6029:0.020168703 6100:0.020760912 6106:0.015405797 6341:0.017192438 6346:0.016982807 6387:0.056555055 6436:0.02148572 6453:0.02148572 6512:0.018851684 6556:0.020760912 6675:0.017917246 6689:0.013926338 6719:0.019667996 6773:0.040337406 6790:0.017657254 6804:0.019234264 6927:0.64971584 6928:0.020760912 6929:0.019234264 6930:0.02148572 6931:0.019667996 6932:0.017192438 6933:0.013347358 6934:0.016785888 6935:0.019667996 6936:0.018851684 6937:0.094948709 6938:0.039335992 6939:0.020168703 6940:0.019667996 6941:0.052249618 #
-0.6969149710781205 3:0.024258135 23:0.025563436 33:0.012989873 45:0.015550681 50:0.015007997 54:0.082894564 77:0.021165747 83:0.020106507 85:0.021208478 87:0.022097804 91:0.10207058 113:0.017159497 114:0.020642398 119:0.0212589 122:0.019199409 130:0.032431629 138:0.33400503 143:0.11443431 144:0.026338119 147:0.015315284 150:0.015442695 154:0.032832183 162:0.05712327 167:0.04016038 169:0.056577466 178:0.023709742 179:0.014946464 188:0.041935954 190:0.016789954 194:0.013706599 196:0.023721993 199:0.015067247 215:0.027923511 217:0.016650422 219:0.030504882 225:0.016970146 228:0.02078166 230:0.01577181 232:0.015550681 239:0.019754285 250:0.085793875 252:0.018720543 253:0.015482134 256:0.062905952 258:0.054436348 262:0.043756831 274:0.043171514 282:0.036902666 289:0.014946464 291:0.026652383 292:0.017346272 293:0.019563088 295:0.03136503 301:0.019481113 325:0.060067859 329:0.021824634 330:0.033888239 334:0.023378821 367:0.17760545 368:0.015616286 370:0.013068628 405:0.036257647 409:0.013476604 428:0.01573984 433:0.030256866 436:0.016236315 437:0.040583815 444:0.017554378 469:0.01794225 479:0.089528508 508:0.018551072 533:0.033061303 560:0.0752896 586:0.2734229 587:0.25375468 590:0.029813329 600:0.013038213 627:0.019997273 641:0.015550681 667:0.03251816 669:0.016555751 674:0.18234712 679:0.080656432 680:0.062070046 693:0.029370097 695:0.019000581 706:0.069080219 730:0.033468045 762:0.028620454 766:0.017820587 767:0.023792703 778:0.031188698 796:0.030576929 816:0.017023724 861:0.018754939 865:0.014084104 869:0.022097804 894:0.053520735 905:0.033307489 922:0.025563436 925:0.17235364 933:0.013773733 940:0.014788611 946:0.050587583 947:0.036132149 948:0.14238204 949:0.047872633 952:0.020478996 953:0.026259718 954:0.25971499 955:0.015336358 971:0.019956183 972:0.019834343 983:0.027209878 985:0.026236439 1019:0.022324327 1034:0.019481113 1037:0.013541545 1054:0.023446117 1072:0.015572481 1095:0.081741504 1118:0.014827739 1126:0.022440413 1144:0.022097804 1261:0.016759867 1300:0.025293792 1329:0.018517666 1351:0.053520735 1374:0.034540109 1383:0.023115961 1394:0.018894242 1424:0.016357446 1437:0.019635897 1456:0.028764065 1467:0.066068642 1473:0.17806871 1540:0.051687885 1570:0.019292349 1618:0.049899545 1634:0.026870055 1637:0.054653876 1733:0.057240907 1791:0.02331217 1830:0.037345909 1848:0.028479742 1867:0.015485689 1883:0.030576929 1968:0.028634377 1986:0.026136223 2028:0.020466041 2043:0.02078166 2052:0.02520618 2177:0.024621949 2200:0.045357108 2208:0.018686319 2240:0.023651993 2243:0.013176138 2264:0.02140869 2366:0.033307489 2407:0.021459345 2427:0.016890546 2432:0.025843943 2468:0.026728785 2476:0.069043711 2537:0.019481113 2573:0.10262275 2625:0.031373795 2651:0.025563436 2705:0.035218935 2854:0.043247312 2856:0.034521855 3227:0.044420291 3384:0.033034321 3722:0.028910702 3728:0.037345909 3769:0.028620454 3814:0.039025597 3815:0.031373795 3943:0.03251816 4085:0.052472878 4109:0.20359646 4110:0.025940012 4214:0.030767763 4318:0.060067859 4483:0.036865376 4726:0.068395689 4799:0.033591814 4822:0.17298925 4855:0.036415868 4947:0.035218935 5104:0.041243616 5525:0.043247312 6272:0.039689429 6362:0.089034356 6407:0.044517178 6766:0.040423263 6777:0.038419563 7235:0.048075061 7553:0.03486168 7588:0.44581491 7589:0.042173658 #
-0.42989379759500168 38:0.067343846 78:0.11484735 79:0.10795727 80:0.19721147 89:0.060479309 90:0.20146658 93:0.11701898 103:0.096205011 105:0.10835495 115:0.065514632 126:0.10594934 139:0.18190514 180:0.091212541 228:0.11984327 289:0.17238595 320:0.11104053 586:0.3503933 604:0.12316921 639:0.067415893 749:0.071752042 770:0.11125474 775:0.083629541 925:0.28397873 1236:0.23111652 1569:0.15827505 1788:0.12524463 1977:0.11391862 2000:0.16344103 2183:0.10073329 2243:0.075983897 2470:0.17123939 2618:0.1388811 3653:0.2100023 4240:0.17743093 4748:0.26568344 5500:0.23311207 5786:0.17525929 5787:0.24939775 #
-0.71406616102481213 6:0.052111488 13:0.012458901 31:0.038410723 33:0.024586393 41:0.032080945 43:0.016695129 45:0.029433327 47:0.013143902 85:0.013380679 91:0.015332747 102:0.042513587 106:0.014193928 114:0.058605898 116:0.035410319 122:0.024226269 125:0.025385864 130:0.034102499 141:0.0295575 143:0.048131973 144:0.016617032 150:0.029228939 163:0.045414865 174:0.010862499 177:0.024876347 180:0.0099790636 182:0.01814759 183:0.010397884 185:0.010153694 189:0.013412491 214:0.010022075 215:0.22902456 219:0.08660651 222:0.023366714 223:0.069776408 232:0.0098111089 235:0.022448476 239:0.037389636 240:0.024826553 250:0.01804279 258:0.17172268 262:0.15183687 265:0.011876438 267:0.021780249 268:0.020986142 270:0.016952636 275:0.038582694 282:0.011641164 303:0.012748487 309:0.017469864 321:0.020383982 328:0.012996506 345:0.012032993 359:0.043503318 362:0.020640213 369:0.016305249 370:0.024735456 381:0.034174085 400:0.011683015 405:0.011437689 406:0.010751695 415:0.014232403 420:0.015434404 428:0.024826126 433:0.0095447078 437:0.24324571 468:0.016070832 475:0.012078768 483:0.012755452 491:0.018765287 493:0.018859802 501:0.027813504 516:0.03169658 536:0.023709042 569:0.012219023 573:0.10036507 581:0.017087042 584:0.022717731 586:0.2587586 587:0.064038731 588:0.025390444 590:0.037619162 595:0.011319978 597:0.013909265 605:0.023975382 617:0.029757194 624:0.014305147 632:0.016070832 638:0.029228939 656:0.011149121 669:0.010445219 670:0.011224238 678:0.021603774 693:0.037059885 699:0.082414478 760:0.01224284 761:0.016070832 767:0.015011098 771:0.090559825 773:0.020234024 784:0.011002631 791:0.036295179 795:0.021575825 827:0.010509137 828:0.01804279 838:0.023158252 858:0.028550407 867:0.013381436 868:0.032008007 877:0.010791826 902:0.012488394 923:0.049055547 924:0.010882795 925:0.093205675 926:0.12457102 927:0.61208433 928:0.021994647 929:0.02462171 930:0.02660786 931:0.021014091 932:0.039588198 935:0.046517603 936:0.022457629 937:0.013941766 938:0.020212919 939:0.016952636 941:0.017630018 942:0.31642866 943:0.18191627 944:0.048478715 945:0.01558508 946:0.047874458 947:0.045592401 948:0.022457629 949:0.030203409 950:0.027404658 951:0.02462171 952:0.032301102 953:0.033135135 954:0.011704091 955:0.0096758893 956:0.010826129 957:0.017881189 958:0.02462171 959:0.033766866 962:0.037018266 963:0.03096032 964:0.018734364 965:0.025129637 966:0.015741106 967:0.011378439 969:0.021193475 971:0.037771776 972:0.012513721 973:0.040723782 974:0.032979306 975:0.021193475 976:0.058133941 977:0.017240889 978:0.030388439 979:0.022975203 980:0.019411746 981:0.025503514 982:0.010124103 983:0.017167034 984:0.022457629 985:0.01655288 986:0.021994647 987:0.028086415 988:0.093154825 989:0.024876347 990:0.011378439 991:0.02504053 992:0.01814759 993:0.02462171 994:0.028086415 995:0.019060016 996:0.019794099 997:0.011437689 998:0.023258802 999:0.023035904 1000:0.031791005 1001:0.012590592 1002:0.019174159 1003:0.046517603 1004:0.022756878 1005:0.022335559 1006:0.042760987 1007:0.03995993 1008:0.024170794 1009:0.016815303 1010:0.012775363 1011:0.016070832 1012:0.02660786 1013:0.010984658 1014:0.027285242 1015:0.021480937 1016:0.040425837 1017:0.013906752 1018:0.024239358 1019:0.028169364 1020:0.010563538 1021:0.017167034 1022:0.019794099 1023:0.013906752 1024:0.01655288 1025:0.018948762 1026:0.019662917 1027:0.02462171 1028:0.013636249 1029:0.013199578 1030:0.019535536 1031:0.01814759 1032:0.028086415 1033:0.01739243 1034:0.012290865 1035:0.022220043 1036:0.012802405 1037:0.017087042 1038:0.027813504 1039:0.044440087 1040:0.011987691 1043:0.01224284 1045:0.014666271 1046:0.032953974 1047:0.012802405 1048:0.022457629 1049:0.01843119 1053:0.021193475 1054:0.014792432 1055:0.011538249 1056:0.21780248 1057:0.0228357 1058:0.011641164 1059:0.0227088 1060:0.021575825 1061:0.02660786 1062:0.02504053 1063:0.017630018 1064:0.01141785 1066:0.016245462 1067:0.017630018 1068:0.027285242 1069:0.011641164 1070:0.029066971 1071:0.027285242 1072:0.019649725 1073:0.023258802 1074:0.016070832 1075:0.015147719 1076:0.016489653 1078:0.012032993 1081:0.023561977 #
0.63582152183713225 4:0.038647305 7:0.027070981 32:0.029516913 40:0.054765847 75:0.031111646 78:0.060684357 79:0.057043698 97:0.019944295 98:0.033313636 106:0.013710494 109:0.066208795 115:0.02307825 125:0.013622913 153:0.017180836 175:0.016394408 177:0.020024233 180:0.016065309 192:0.019190993 198:0.020434173 225:0.017236678 237:0.046317711 253:0.015725294 258:0.023696279 268:0.016892809 272:0.11002956 277:0.02869436 289:0.015181211 293:0.013246896 304:0.015555823 309:0.018749841 314:0.069729142 323:0.027311027 339:0.024857225 379:0.023544826 405:0.018413551 426:0.0144318 448:0.015283296 475:0.019445626 491:0.015105132 493:0.015181211 522:0.016181095 531:0.025446257 535:0.014883508 591:0.021384919 600:0.01324299 605:0.019299001 621:0.016689217 630:0.02061061 636:0.034119405 644:0.051542506 662:0.028221985 678:0.02608496 700:0.029047113 732:0.023849962 733:0.019129572 742:0.019014567 763:0.040529937 773:0.032574784 779:0.019014567 780:0.01500109 787:0.031108342 867:0.064628385 869:0.022444868 876:0.025427381 877:0.026060663 895:0.022277091 917:0.014961679 926:0.057299159 968:0.02398175 970:0.02063659 996:0.031866547 1004:0.018318165 1041:0.029650884 1043:0.019709766 1065:0.041313984 1095:0.013837554 1098:0.025691053 1104:0.023611251 1118:0.015060622 1167:0.013124505 1181:0.024847869 1183:0.015366038 1201:0.015906328 1215:0.015839271 1241:0.030505639 1254:0.05702965 1269:0.026249845 1282:0.055903319 1283:0.033830613 1289:0.029215829 1294:0.025602065 1295:0.021542793 1310:0.021346271 1358:0.05676518 1393:0.017102435 1418:0.025781173 1425:0.018910784 1446:0.031450287 1474:0.019408684 1479:0.027180662 1503:0.021848209 1506:0.064479448 1535:0.01544976 1571:0.037282504 1670:0.019748317 1694:0.024166388 1748:0.071650125 1774:0.085191928 1788:0.0220594 1894:0.061737012 1909:0.020654414 1912:0.022852559 2031:0.11642593 2040:0.016065309 2043:0.021108055 2053:0.049073718 2062:0.029069962 2123:0.022277091 2147:0.025602065 2209:0.023096526 2251:0.022616724 2314:0.028927041 2409:0.020186869 2417:0.020742845 2427:0.017155826 2446:0.016867038 2468:0.027148582 2540:0.043592766 2547:0.0220594 2579:0.031450287 2657:0.03655893 2665:0.029069962 2800:0.030160479 2830:0.06823881 2875:0.078045957 3056:0.020567076 3164:0.023544826 3216:0.034420487 3311:0.02878695 3316:0.017889285 3376:0.0722837 3399:0.033553153 3459:0.03322871 3551:0.031250998 3573:0.02267495 3581:0.026546715 3759:0.031057166 3773:0.028927041 3797:0.031450287 3875:0.070241444 4003:0.019944295 4090:0.11806765 4175:0.037444379 4228:0.048477892 4316:0.034119405 4372:0.041058145 4375:0.11537018 4376:0.034420487 4562:0.13421261 4846:0.040312786 4866:0.041058145 4881:0.024023468 4891:0.035772078 5167:0.7927705 5181:0.062501997 5281:0.045216359 5618:0.037444379 5675:0.027756132 5826:0.02534163 5898:0.07311786 5953:0.048830122 5979:0.05676518 6140:0.041058145 6347:0.032540806 6426:0.034119405 6482:0.16726239 6517:0.041891385 6637:0.082911693 7079:0.030684747 7096:0.036154572 7534:0.045216359 7580:0.046794958 7778:0.035409212 7880:0.076913454 7885:0.048624512 7903:0.069469906 7923:0.046794958 8003:0.034734953 8069:0.093589917 8078:0.036154572 8304:0.058431659 8342:0.10967679 8447:0.029994017 8487:0.036154572 8527:0.046794958 8622:0.039022978 8637:0.042836033 8824:0.039022978 8834:0.042836033 8975:0.042836033 9656:0.048830122 9788:0.046794958 #
0.16465584665722116 5:0.033292148 26:0.032999303 47:0.034416575 72:0.045094416 88:0.027063919 105:0.023280302 116:0.017384989 118:0.018227018 129:0.02765131 138:0.027588939 139:0.01954136 153:0.020957988 217:0.030944947 250:0.053149544 253:0.028773677 264:0.022659196 277:0.02333515 321:0.04003074 337:0.05748054 367:0.044010829 405:0.022461712 457:0.018131925 486:0.049175423 489:0.076854452 539:0.018949689 540:0.11428288 545:0.037286561 548:0.016920691 569:0.071988367 578:0.026277423 601:0.019403284 605:0.023541825 632:0.063120864 640:0.02335752 657:0.046456203 662:0.051639751 768:0.022126507 788:0.020797709 794:0.050084647 797:0.050283577 889:0.024525123 940:0.018323172 955:0.057005499 963:0.040533938 990:0.044690713 1005:0.021931656 1034:0.072411627 1036:0.025141789 1051:0.034080375 1065:0.025198366 1075:0.029747592 1086:0.067977585 1092:0.040056139 1167:0.025615817 1282:0.038967706 1329:0.022943493 1345:0.023857305 1361:0.018323172 1401:0.10435116 1424:0.081067875 1485:0.029304951 1512:0.036029026 1539:0.11365496 1558:0.090356454 1676:0.036389716 1691:0.020358287 1771:0.025863657 1851:0.035638839 1861:0.030214174 1916:0.026401317 2030:0.031673241 2061:0.028561268 2107:0.032760926 2200:0.028098855 2220:0.03400575 2247:0.032382924 2374:0.020206621 2401:0.034783721 2626:0.053583663 2640:0.035286561 3039:0.024377605 3128:0.10716733 3167:0.036195781 3302:0.076905131 3467:0.063120864 3468:0.18508716 3469:0.040929709 3486:0.052253399 3488:0.026463179 3836:0.13230911 3944:0.02965723 3979:0.03400575 4001:0.044596296 4132:0.22092304 4318:0.037212208 4562:0.12278912 4608:0.11913054 4799:0.041620448 4972:0.037430689 5160:0.057560567 5256:0.034308575 5441:0.034308575 5469:0.037654851 5759:0.11721981 6002:0.042772774 6238:0.061444711 6357:0.041987721 6376:0.02896649 6915:0.038872305 7074:0.041620448 7472:0.036389716 8253:0.073874667 8459:0.064041577 8510:0.055157032 8675:0.037430689 8773:0.084742643 8920:0.050084647 9204:0.1567602 9219:0.053583663 9220:0.053583663 9613:0.12612858 9636:0.75950485 #
0.43706599448195316 2:0.20957907 4:0.16388437 6:0.17787753 15:0.053480621 19:0.039968938 44:0.046192676 57:0.084109604 71:0.034709081 78:0.064333193 79:0.060473625 89:0.033878248 110:0.055773105 124:0.037844796 145:0.046073306 151:0.0388394 160:0.100024 178:0.038295206 194:0.044276908 199:0.048672251 200:0.051836468 217:0.1344661 274:0.092972293 294:0.28512886 328:0.066543475 402:0.045045245 427:0.055698242 438:0.065411203 493:0.048282083 524:0.11044417 531:0.040464435 561:0.12610897 590:0.048153516 591:0.079347633 600:0.042117797 621:0.053078119 650:0.10425502 676:0.091116667 705:0.078525767 768:0.086532325 818:0.059286345 828:0.046190489 829:0.052840032 873:0.12445986 874:0.046131823 877:0.055255283 939:0.086799279 1077:0.039703198 1225:0.073455825 1228:0.050948229 1239:0.13608795 1240:0.075958312 1282:0.050798297 1285:0.052761223 1338:0.066835679 1394:0.061034732 1449:0.090267539 1831:0.18873926 1876:0.11376896 1888:0.049270492 1922:0.066219658 2284:0.06513682 2337:0.12230716 2370:0.061962664 2445:0.047273546 2446:0.053643659 2468:0.043171462 2554:0.065000869 3131:0.19078499 3309:0.1104705 3387:0.11627144 3581:0.25328624 3584:0.100024 3988:0.049203232 4474:0.065411203 4558:0.057566468 4619:0.084752485 5135:0.089854702 5882:0.11151716 6209:0.092453644 6993:0.37819722 7878:0.098773718 8253:0.064202003 9208:0.1397033 9526:0.13323069 9594:0.29765189 #
0.71912861084320445 6:0.035101425 19:0.015774524 22:0.020993419 27:0.029243659 30:0.020214846 33:0.024841473 34:0.029151242 38:0.04466496 39:0.060308553 41:0.032413777 44:0.018230844 46:0.042115945 54:0.030195288 56:0.022313278 70:0.025775574 90:0.022270029 111:0.020326763 114:0.0263173 118:0.018755281 139:0.020107716 166:0.031690277 175:0.020578276 176:0.018804612 180:0.04033038 182:0.036671735 192:0.024088552 198:0.038473487 216:0.030609749 228:0.079484545 229:0.030758077 230:0.020107716 232:0.019825796 265:0.047998615 286:0.01589847 293:0.016627515 304:0.019525683 309:0.035302226 317:0.024057526 320:0.024548745 331:0.016957738 335:0.019498898 368:0.019909436 370:0.016661389 376:0.028609617 405:0.023112707 428:0.020066954 465:0.029472312 488:0.029806007 489:0.01977047 523:0.042464215 534:0.019965637 539:0.019498898 555:0.13646877 573:0.020281266 601:0.019965637 613:0.029681416 644:0.0215654 659:0.04674954 680:0.026378008 684:0.026134882 712:0.03270882 713:0.027294258 727:0.016042275 751:0.029553486 758:0.027122926 763:0.016957738 774:0.031493545 779:0.071601301 815:0.097262673 816:0.021703798 828:0.018229982 831:0.044901144 838:0.023398517 839:0.037857462 840:0.083679356 844:0.14100066 900:0.028907122 903:0.027671993 917:0.037559826 962:0.024934882 1004:0.045985956 1005:0.022567287 1083:0.023112707 1118:0.018904107 1183:0.019287465 1209:0.024408165 1215:0.019881468 1229:0.033449229 1263:0.022914046 1272:0.034257032 1279:0.040101223 1285:0.02082325 1295:0.027040534 1305:0.034117192 1329:0.023608448 1330:0.030894684 1336:0.024643717 1338:0.23740208 1376:0.027358837 1397:0.032591205 1410:0.020223038 1434:0.30720642 1469:0.030798687 1485:0.030154277 1486:0.035302918 1499:0.026494849 1547:0.031493545 1564:0.01591632 1570:0.098384418 1583:0.037444375 1643:0.034839522 1670:0.024788106 1729:0.037648514 1732:0.022796949 1749:0.027756505 1757:0.045381248 1769:0.033321459 1868:0.064050853 1890:0.078788057 1942:0.035462916 1969:0.039476428 2040:0.02016519 2056:0.10113125 2072:0.071583666 2076:0.026205581 2131:0.0458888 2187:0.10073658 2228:0.044445675 2433:0.041146286 2445:0.018657431 2446:0.02117152 2543:0.038982984 2555:0.069679044 2556:0.10892774 2564:0.023357119 2595:0.018929156 2664:0.029891802 2766:0.031597402 2951:0.038071439 2988:0.037857462 3056:0.051631622 3082:0.029978435 3115:0.060667343 3135:0.070925832 3325:0.048981674 3506:0.0238671 3687:0.040554084 3741:0.051536217 3834:0.051536217 4025:0.50832945 4048:0.071921952 4186:0.01977047 4322:0.099508628 4384:0.042464215 4749:0.035145748 4842:0.038982984 5078:0.11027329 5080:0.4178082 5081:0.096541829 5082:0.047000218 5148:0.042115945 5160:0.019742936 5180:0.12343886 5184:0.055136643 5328:0.048270915 5545:0.046427131 6087:0.037857462 6776:0.0525821 6934:0.0917776 7341:0.0525821 7677:0.0525821 7771:0.042115945 7772:0.038746174 7777:0.058737069 7843:0.11747414 8052:0.0458888 8257:0.016798455 8313:0.044901144 8325:0.16130348 8326:0.042464215 8327:0.056755614 8328:0.055136643 8329:0.056755614 8330:0.0525821 8331:0.053767826 8332:0.055136643 #
0.64535190719450231 19:0.051512498 27:0.02387416 28:0.020857371 34:0.023798712 59:0.044151109 65:0.023500783 67:0.022412285 72:0.025254326 95:0.050663739 98:0.022758329 111:0.033189032 117:0.10819995 129:0.053093571 142:0.032825045 193:0.029577406 248:0.081708178 268:0.069242299 293:0.027148992 295:0.032645494 296:0.032371063 299:0.022435099 335:0.031837314 344:0.043164428 370:0.027204299 379:0.096508391 391:0.025698943 406:0.10642339 427:0.10767695 484:0.054200791 499:0.038969606 530:0.051591452 534:0.032599393 549:0.0723681 561:0.040632728 581:0.084566243 600:0.027140986 608:0.02443978 624:0.023599414 625:0.023208855 639:0.024335286 662:0.028919926 699:0.045320131 700:0.029765459 708:0.033698663 716:0.068510793 727:0.026193427 741:0.056221209 749:0.077701546 758:0.029523758 760:0.040394388 769:0.041879036 770:0.040159903 773:0.02225358 873:0.032081105 877:0.035606872 912:0.042695176 933:0.11468832 934:0.023329778 961:0.023624176 972:0.041288145 978:0.05013226 982:0.033403765 990:0.037542362 1007:0.043948326 1008:0.026583279 1095:0.056719046 1167:0.026898157 1209:0.039853044 1282:0.032734759 1293:0.024597948 1314:0.023648983 1338:0.043069355 1350:0.043847989 1416:0.051936675 1504:0.055480912 1508:0.024946684 1535:0.031663675 1551:0.076740779 1564:0.025987769 1618:0.051936675 1662:0.039318211 1704:0.058716185 1732:0.037222289 1760:0.058440015 1846:0.039777335 2023:0.08613871 2059:0.049676768 2064:0.59876698 2082:0.044777047 2127:0.046233732 2181:0.039258145 2192:0.062887177 2227:0.059577744 2292:0.17450701 2304:0.15348156 2378:0.043453448 2446:0.034568328 2468:0.027819976 2530:0.072723895 2546:0.052112419 2861:0.056401767 2898:0.057641722 2943:0.03543742 3135:0.057902966 3272:0.024231538 3743:0.059284832 3861:0.070543431 3959:0.1624752 3965:0.07881555 3988:0.031706888 4186:0.064561464 4870:0.087790765 4897:0.057902966 4977:0.071187921 5081:0.23644665 5262:0.07881555 5385:0.062887177 5416:0.076740779 5417:0.076740779 5514:0.15995212 5996:0.14513958 6065:0.082619466 6235:0.24785841 6603:0.085854746 6907:0.19180885 7773:0.07881555 8257:0.027428098 8422:0.1576311 8505:0.046835419 8589:0.095904425 #
-0.62403306756590504 29:0.019281771 45:0.02318483 65:0.01683175 75:0.045667741 96:0.028381744 102:0.01674412 107:0.020764332 108:0.034910779 109:0.016197611 111:0.023770677 113:0.025583446 115:0.016937893 116:0.02091971 118:0.021932941 123:0.017208096 124:0.017466791 131:0.029631628 133:0.03942807 134:0.017429437 139:0.023514517 156:0.035367604 160:0.046164822 178:0.017674671 214:0.023683369 230:0.023514517 235:0.026524225 253:0.023082633 278:0.016767066 294:0.043865882 297:0.031262591 304:0.022833871 308:0.034179542 312:0.037843317 339:0.018243544 362:0.024387654 365:0.024910711 381:0.040378734 428:0.02346685 434:0.022616556 436:0.024207054 448:0.044867676 457:0.021818513 460:0.033113562 483:0.030142665 547:0.036473352 548:0.020361012 555:0.039897583 561:0.029102007 584:0.026842365 590:0.022224652 618:0.020815868 626:0.027028635 634:0.017410811 732:0.070017122 733:0.028079659 735:0.029275563 763:0.039661687 774:0.036829419 778:0.023249935 797:0.060507245 838:0.054725736 858:0.016867012 861:0.027962124 865:0.02099828 1029:0.031192191 1034:0.029044792 1077:0.018324513 1079:0.019484285 1087:0.030189719 1101:0.020485375 1120:0.034179542 1129:0.025624409 1139:0.029159537 1144:0.032946069 1168:0.044027209 1183:0.022555292 1206:0.038250595 1207:0.033113562 1235:0.050986271 1242:0.050986271 1290:0.032699794 1295:0.031621944 1364:0.036242582 1397:0.038113054 1444:0.057196181 1474:0.028489355 1583:0.043788482 1704:0.042053755 1736:0.065892138 1761:0.039421886 1881:0.04587229 1988:0.057975784 2041:0.04246103 2100:0.029692177 2136:0.031843681 2144:0.031404845 2147:0.037580412 2152:0.04147131 2187:0.078536086 2188:0.049658824 2189:0.047095373 2452:0.75557619 2524:0.03214689 2643:0.033369973 2831:0.04587229 2991:0.08904358 3573:0.033283796 4235:0.033029478 4775:0.058184061 4815:0.11636812 5167:0.46547249 5168:0.2150283 5169:0.12298191 #
-0.64322794875065492 9:0.056911271 16:0.072586887 31:0.040156741 40:0.086935401 45:0.03760932 83:0.060784481 92:0.033724654 116:0.067869909 129:0.030842563 134:0.1130928 137:0.037452139 162:0.069076307 169:0.045610864 171:0.054209966 174:0.041639656 176:0.035672147 177:0.047679752 191:0.068988688 212:0.054702237 219:0.036888029 239:0.047775734 250:0.034582078 303:0.048869289 357:0.062869139 381:0.032750227 406:0.061822362 407:0.097127877 462:0.049711704 473:0.034320239 480:0.043319289 524:0.055125188 588:0.09733022 590:0.036051765 600:0.031532917 665:0.057542652 666:0.061604973 680:0.0500388 752:0.048463374 775:0.035072956 798:0.04266715 858:0.027360858 877:0.062053114 900:0.13709125 924:0.041717459 931:0.080554165 960:0.034190826 1000:0.030466435 1010:0.048972316 1054:0.056704428 1077:0.08917544 1092:0.039094161 1130:0.10055084 1135:0.082213923 1178:0.19337635 1215:0.037714932 1216:0.043172169 1218:0.10530759 1225:0.21998079 1263:0.0434677 1285:0.039501481 1317:0.07350108 1336:0.046748865 1374:0.041767623 1511:0.23593549 1522:0.2048894 1532:0.042953875 1653:0.042881735 1694:0.1150853 1739:0.066969253 1920:0.060341019 1967:0.051534541 1968:0.034626119 2081:0.061825167 2126:0.056380481 2239:0.094383396 2249:0.066671111 2306:0.053991381 2335:0.057202339 2350:0.048563939 2370:0.092780903 2432:0.062503576 2451:0.060341019 2458:0.058066364 2508:0.069565892 2655:0.13984106 2821:0.050485045 2926:0.18313882 3052:0.057202339 3352:0.094383396 3457:0.062503576 3678:0.092917711 3807:0.072637059 3839:0.051776916 4054:0.19949536 4059:0.55711794 4085:0.063452825 4111:0.05037237 4115:0.084312968 4231:0.094383396 4420:0.090321079 4421:0.04866511 4422:0.082707487 4423:0.086087741 4424:0.076930657 4425:0.094383396 4426:0.11626954 #
